34 100
1 -2.990079522132873535e-01 -1.183856977149844170e-03 8.973938971757888794e-02 3.290993859991431236e-03 6.946678757667541504e-01 1.598856329917907715e+00 1.229426562786102295e-01 -6.851699948310852051e-01 4.625409096479415894e-02 2.103908061981201172e-01 -1.529697445221245289e-03 -4.979221615940332413e-03 4.199015796184539795e-01 -4.414078593254089355e-01 -2.030697942245751619e-04 -1.276596039533615112e-01 -5.530577152967453003e-02 3.862707875669002533e-03 5.781897343695163727e-04 1.750967116095125675e-03 -2.942821681499481201e-01 -6.338034290820360184e-04 2.150816470384597778e-01 3.391599282622337341e-03 -5.757903456687927246e-01 6.774109601974487305e-01 2.904101610183715820e-01 2.363175749778747559e-01 -6.966758370399475098e-01 5.640315636992454529e-02 2.421185821294784546e-01 -1.069511294364929199e+00 1.006594896316528320e+00 -4.231447279453277588e-01 3.537510707974433899e-02 5.513920405064709485e-05 -1.866726391017436981e-02 5.466595888137817383e-01 -4.796236753463745117e-01 -2.577623128890991211e-01 4.783482253551483154e-01 1.219215020537376404e-01 -2.332631498575210571e-03 -2.969037294387817383e-01 -4.807195663452148438e-01 -2.738266587257385254e-01 -1.203911662101745605e+00 4.837009182665497065e-04 2.309034317731857300e-01 2.210828959941864014e-01 -2.235148698091506958e-01 2.692010626196861267e-02 -1.524819582700729370e-01 -1.141461133956909180e-01 -7.335808873176574707e-01 -4.136603791266679764e-03 -2.091459929943084717e-02 -3.375581000000238419e-03 -9.038459658622741699e-01 -1.141896486282348633e+00 4.986407160758972168e-01 1.524456776678562164e-03 5.107145905494689941e-01 5.159175023436546326e-02 -2.081158459186553955e-01 1.718972027301788330e-01 -1.504705250263214111e-01 1.774514913558959961e+00 -9.986745119094848633e-01 -1.539795517921447754e+00 4.940496012568473816e-02 8.564737439155578613e-02 -3.251590132713317871e-01 2.410721778869628906e-01 3.855061233043670654e-01 -2.146265953779220581e-01 6.666983664035797119e-02 -6.114632822573184967e-03 5.430508255958557129e-01 -4.319530129432678223e-01 -5.481747984886169434e-01 -2.203367948532104492e-01 1.922929435968399048e-01 2.027693837881088257e-01 -5.894130095839500427e-02 -1.472338140010833740e-01 -4.069476127624511719e-01 -1.971640884876251221e-01 3.905199468135833740e-02 3.190271854400634766e-01 8.238567411899566650e-02 5.979911983013153076e-02 8.618573192507028580e-04 8.230976462364196777e-01 -2.449968364089727402e-03 5.161765497177839279e-03 6.079426407814025879e-01 -6.502175331115722656e-01 -6.964724659919738770e-01 3.444321155548095703e-01
2 -1.380242854356765747e-01 -3.839279292151331902e-03 -1.354970317333936691e-02 -2.702921628952026367e-04 -1.769031733274459839e-01 1.163473501801490784e-01 2.250117994844913483e-02 -1.058313131332397461e+00 4.146493598818778992e-02 3.410947024822235107e-01 2.943949075415730476e-03 -3.916661720722913742e-03 -1.380543224513530731e-02 -7.700131535530090332e-01 -4.618157632648944855e-03 8.022662252187728882e-02 -1.023695170879364014e-01 -8.423956036567687988e-01 3.563992213457822800e-04 -7.096347981132566929e-04 2.303087562322616577e-01 -3.391334554180502892e-03 1.087122485041618347e-01 3.257081145420670509e-03 -6.123676896095275879e-01 1.536736357957124710e-02 1.692784577608108521e-01 -7.415639758110046387e-01 1.604538559913635254e-01 -4.293724894523620605e-01 6.375234574079513550e-02 -1.197211861610412598e+00 -6.126738339662551880e-02 -2.443979978561401367e-01 -2.527201473712921143e-01 -3.723812056705355644e-03 -5.892579555511474609e-01 4.259652197360992432e-01 -2.475923001766204834e-01 -1.144159317016601562e+00 1.198557838797569275e-01 2.087806910276412964e-01 -1.304633333347737789e-03 1.507593542337417603e-01 -7.259722352027893066e-01 -4.745000600814819336e-01 -6.567665338516235352e-01 3.182170257787220180e-05 6.043403148651123047e-01 -4.044791683554649353e-02 -5.409973859786987305e-01 -2.523187547922134399e-02 1.073646843433380127e-01 -1.555158644914627075e-01 -3.386268615722656250e-01 -3.136785235255956650e-03 6.451071053743362427e-02 4.683524370193481445e-03 -9.827803373336791992e-01 -4.314887523651123047e-01 -8.554752916097640991e-02 1.740500098094344139e-03 3.053718805313110352e-01 -8.167514950037002563e-02 -2.115529328584671021e-01 7.053118199110031128e-02 -4.047615826129913330e-01 5.471047163009643555e-01 4.142067730426788330e-01 -3.000601530075073242e-01 2.982672862708568573e-02 -1.507999449968338013e-01 -3.158672153949737549e-02 6.166769936680793762e-02 3.920664191246032715e-01 2.093482315540313721e-01 -5.712586455047130585e-03 1.233355030417442322e-01 1.262545883655548096e-01 -2.999053895473480225e-01 3.646357059478759766e-01 1.774106919765472412e-02 -2.876744866371154785e-01 1.255879402160644531e-01 2.736681401729583740e-01 -1.542867124080657959e-01 -2.692752778530120850e-01 1.637291759252548218e-01 1.727902442216873169e-01 4.488520324230194092e-01 1.767857931554317474e-02 -9.817054122686386108e-02 5.206803907640278339e-04 9.237578511238098145e-02 3.778791129589080811e-01 -2.680275440216064453e-01 1.251554042100906372e-01 -3.089170530438423157e-02 3.416087925434112549e-01 -6.451866030693054199e-01
3 -1.864927709102630615e-01 3.024753881618380547e-03 -2.175242900848388672e-01 3.645409364253282547e-03 -1.428468078374862671e-01 -3.184841573238372803e-02 1.030749082565307617e-01 -6.157583370804786682e-02 -7.040195912122726440e-02 1.038470715284347534e-01 2.457014052197337151e-04 4.583907779306173325e-03 2.161409854888916016e-01 -3.875764906406402588e-01 -2.358316676691174507e-03 -9.808997064828872681e-02 -8.824204802513122559e-01 7.526296973228454590e-01 3.054555039852857590e-03 1.226544030942022800e-03 7.060486823320388794e-02 3.012583358213305473e-03 3.733124956488609314e-02 2.298967912793159485e-03 3.477641195058822632e-02 9.767935276031494141e-01 7.843962311744689941e-02 1.897906810045242310e-01 3.995115458965301514e-01 -9.159078598022460938e-01 3.184645175933837891e-01 -1.194514989852905273e+00 -6.996343284845352173e-02 1.049065068364143372e-01 8.168683648109436035e-01 -4.102775710634887218e-04 6.496874094009399414e-01 2.353365272283554077e-01 7.569583654403686523e-01 4.903197586536407471e-01 1.504317224025726318e-01 -1.675290316343307495e-01 3.783298423513770103e-03 -1.157238893210887909e-02 3.451279401779174805e-01 -1.756229043006896973e+00 -1.148867368698120117e+00 4.200376570224761963e-03 -3.769287467002868652e-01 7.659851908683776855e-01 3.237504139542579651e-02 1.713956445455551147e-01 -4.775708913803100586e-02 5.455087423324584961e-01 1.850360073149204254e-02 3.064441494643688202e-03 1.521586477756500244e-01 3.565593389794230461e-03 -1.463187098503112793e+00 7.129523903131484985e-02 2.189384102821350098e-01 -3.966531250625848770e-03 -1.637559086084365845e-01 1.565716862678527832e-01 9.449200630187988281e-01 1.937471702694892883e-02 -4.867211878299713135e-01 9.647347331047058105e-01 -4.044990539550781250e-01 3.182222843170166016e-01 1.053459942340850830e-01 4.214083254337310791e-01 -1.759224571287631989e-02 5.057242512702941895e-01 8.475542664527893066e-01 -5.270483493804931641e-01 -1.451175510883331299e-01 7.501779496669769287e-02 5.207847058773040771e-02 6.297314167022705078e-01 2.377001196146011353e-02 6.749586760997772217e-02 -7.828364521265029907e-02 1.144747287034988403e-01 5.460163354873657227e-01 3.707090765237808228e-02 6.184451654553413391e-02 -2.681562900543212891e-01 5.690165981650352478e-02 1.336336880922317505e-01 -2.821476198732852936e-02 4.302041828632354736e-01 -3.118629101663827896e-03 4.560694098472595215e-01 3.530335128307342529e-01 -1.192616019397974014e-02 -3.228404223918914795e-01 -5.343406200408935547e-01 -2.201822698116302490e-01 1.450660705566406250e+00
4 5.518192052841186523e-01 -2.005320711759850383e-04 6.184255480766296387e-01 -2.952333539724349976e-03 3.298162221908569336e-01 -5.903030559420585632e-02 -2.228885442018508911e-01 5.650928243994712830e-03 -5.285001918673515320e-02 -5.672481376677751541e-03 3.407626063562929630e-04 -3.649100428447127342e-03 4.646437466144561768e-01 -1.635069847106933594e+00 1.716418308205902576e-03 1.309592872858047485e-01 -1.037661358714103699e-01 1.061630845069885254e-01 1.714770449325442314e-03 4.032716387882828712e-04 -1.129430457949638367e-01 -3.397007007151842117e-03 2.371151298284530640e-01 -4.709510132670402527e-03 -1.203619539737701416e-01 3.709760606288909912e-01 -1.733941771090030670e-02 -5.125588551163673401e-02 4.582138732075691223e-02 4.533288180828094482e-01 -1.345915645360946655e-01 -2.643627524375915527e-01 2.546935081481933594e-01 -4.516772627830505371e-01 1.652166008949279785e+00 3.518138080835342407e-03 -5.365096926689147949e-01 -2.372904866933822632e-02 -1.929387748241424561e-01 2.978692948818206787e-01 3.994914889335632324e-01 6.249608471989631653e-02 4.467324179131537676e-04 -2.243313640356063843e-01 -6.725575923919677734e-01 6.539701223373413086e-01 -4.559920430183410645e-01 -3.688480239361524582e-03 3.538714349269866943e-01 9.618131816387176514e-02 -3.655060231685638428e-01 2.637776359915733337e-02 -2.034405171871185303e-01 -7.676492929458618164e-01 -1.858499795198440552e-01 -1.006798120215535164e-03 2.863755822181701660e-02 4.526536213234066963e-04 -8.742008805274963379e-01 -6.900848448276519775e-02 -4.757108911871910095e-02 1.972041092813014984e-03 -4.642357230186462402e-01 -4.352870956063270569e-02 -5.939795374870300293e-01 2.070639133453369141e-01 -2.234789431095123291e-01 -1.606431603431701660e-01 -4.114009439945220947e-01 -6.049827337265014648e-01 -2.594712190330028534e-02 -1.925695836544036865e-01 -8.240427821874618530e-02 -2.683882117271423340e-01 -8.239954710006713867e-01 5.599609017372131348e-01 2.753196954727172852e-01 -1.657246947288513184e-01 -1.536112129688262939e-01 -1.162676453590393066e+00 -1.004556789994239807e-01 -1.787021905183792114e-01 9.239633381366729736e-02 -2.180610448122024536e-01 -8.580090850591659546e-02 -2.178781479597091675e-01 -3.030876517295837402e-01 2.915019690990447998e-01 -9.976093471050262451e-02 2.149736583232879639e-01 -8.910504728555679321e-02 -8.134634792804718018e-02 -2.593231387436389923e-03 -9.791431427001953125e-01 2.555095851421356201e-01 -3.760121390223503113e-02 -2.878100275993347168e-01 -5.662838220596313477e-01 -8.018714785575866699e-01 7.168580889701843262e-01
5 -9.172880649566650391e-01 5.578766576945781708e-04 -4.659768342971801758e-01 3.109874203801155090e-03 -2.402799427509307861e-01 6.957273483276367188e-01 2.349184900522232056e-01 -7.495222687721252441e-01 -1.450183689594268799e-01 -2.743984460830688477e-01 -1.677528955042362213e-03 1.483634347096085548e-03 -2.526887059211730957e-01 -9.113433957099914551e-01 -7.116707856766879559e-04 -2.120772749185562134e-01 -2.914225310087203979e-02 3.573575615882873535e-02 -4.506337572820484638e-04 2.386086387559771538e-03 2.023345828056335449e-01 -3.147784387692809105e-03 9.034826606512069702e-02 1.998217310756444931e-03 -9.008551836013793945e-01 6.444132924079895020e-01 4.497847259044647217e-01 6.217462196946144104e-02 4.624871611595153809e-01 -1.227849945425987244e-01 -1.611368656158447266e-01 -1.650556683540344238e+00 2.723906934261322021e-01 -4.533553719520568848e-01 9.879437088966369629e-01 -2.664130879566073418e-03 1.391391456127166748e-01 4.657965600490570068e-01 3.045679330825805664e-01 -2.125699222087860107e-01 2.493752092123031616e-01 3.581558121368288994e-03 -2.184476936236023903e-03 2.172322422266006470e-01 -1.546385977417230606e-02 -2.880812585353851318e-01 1.058057785034179688e+00 3.884689416736364365e-03 -5.640799999237060547e-01 4.945828020572662354e-01 -5.887548923492431641e-01 5.349693819880485535e-03 7.565727084875106812e-02 -3.590831160545349121e-01 -6.830757260322570801e-01 2.766811754554510117e-03 1.501746773719787598e-01 -1.321929303230717778e-04 -9.534118175506591797e-01 6.082297563552856445e-01 -6.391483545303344727e-01 1.043408876284956932e-03 3.811387419700622559e-01 2.012863159179687500e-01 2.521373331546783447e-01 3.187123835086822510e-01 -1.859600245952606201e-01 2.474921345710754395e-01 9.182450771331787109e-01 1.237493276596069336e+00 3.788824891671538353e-03 8.816649764776229858e-02 1.277874112129211426e-01 2.540086507797241211e-01 5.109054446220397949e-01 -2.239518016576766968e-01 -3.041806817054748535e-01 2.719195485115051270e-01 -6.576337814331054688e-01 -4.526646733283996582e-01 -7.047396302223205566e-01 -2.719974517822265625e-01 -1.405880600214004517e-01 5.648930072784423828e-01 1.024430468678474426e-01 -2.184635549783706665e-01 -4.598579108715057373e-01 1.125066399574279785e+00 -6.200534105300903320e-02 3.861536681652069092e-01 -2.157329916954040527e-01 1.534291505813598633e-01 -2.520334441214799881e-03 4.324285387992858887e-01 2.643021047115325928e-01 2.511776052415370941e-02 -8.389955163002014160e-01 1.744582206010818481e-01 8.308094739913940430e-01 -1.212041303515434265e-01
6 1.191922947764396667e-01 4.471190739423036575e-03 -7.345238327980041504e-02 -9.168733231490477920e-05 -9.169469028711318970e-02 -2.703717350959777832e-01 -1.423681993037462234e-02 -8.723918795585632324e-01 -1.281380094587802887e-02 4.040760174393653870e-02 -4.979063756763935089e-03 3.322234842926263809e-04 2.123034000396728516e-01 -1.119244933128356934e+00 1.075923908501863480e-03 -1.817527972161769867e-02 -5.915680900216102600e-02 -9.013590812683105469e-01 -2.253994578495621681e-03 -2.789048012346029282e-03 4.504142329096794128e-03 3.920417279005050659e-03 -2.550366893410682678e-02 3.131355857476592064e-03 6.664397716522216797e-01 1.060765236616134644e-01 -1.009883824735879898e-02 -4.157912433147430420e-01 3.045164048671722412e-02 1.917695850133895874e-01 -6.539294868707656860e-02 -9.516242742538452148e-01 2.688393183052539825e-02 3.930810838937759399e-02 1.615102440118789673e-01 -1.620014547370374203e-03 2.359874546527862549e-01 -6.478127837181091309e-02 -6.010826826095581055e-01 -5.582580566406250000e-01 -3.589684888720512390e-02 9.260621666908264160e-02 3.655981272459030151e-03 2.707862295210361481e-02 3.008573353290557861e-01 2.376173883676528931e-01 -1.631488561630249023e+00 -1.618847250938415527e-03 2.894804477691650391e-01 -7.587794214487075806e-02 2.554239630699157715e-01 3.158350288867950439e-02 1.049190387129783630e-01 2.412149123847484589e-02 1.609212011098861694e-01 3.437641076743602753e-03 -9.486356377601623535e-02 -3.274152288213372231e-03 -1.061023116111755371e+00 3.116629719734191895e-01 1.998841762542724609e-01 4.047569818794727325e-03 -1.944447159767150879e-01 6.054859608411788940e-03 1.076571363955736160e-02 -4.465930536389350891e-02 4.770365357398986816e-02 -5.016965270042419434e-01 -2.419490665197372437e-01 1.962238103151321411e-01 4.643007923732511699e-05 -1.022220477461814880e-01 7.050713524222373962e-03 1.484317332506179810e-01 -5.455191135406494141e-01 6.679096221923828125e-01 -5.945928767323493958e-02 4.330370947718620300e-02 3.667809665203094482e-01 3.747862279415130615e-01 5.599411949515342712e-02 8.127551525831222534e-02 -1.282104849815368652e-02 2.788556157611310482e-04 -7.811249792575836182e-02 1.084627769887447357e-02 2.531132102012634277e-02 -4.331907723098993301e-03 -1.166853401809930801e-02 2.335686050355434418e-02 -3.517854586243629456e-02 -5.815541744232177734e-02 8.612945675849914551e-04 1.037185788154602051e-01 5.106543898582458496e-01 3.514525666832923889e-02 -2.738421857357025146e-01 -1.725880801677703857e-01 -4.356889128684997559e-01 5.143789574503898621e-02
7 -2.024556547403335571e-01 2.364190295338630676e-03 2.726244181394577026e-02 1.902142888866364956e-03 -1.873393505811691284e-01 4.740526378154754639e-01 -1.142217665910720825e-01 -7.939564585685729980e-01 -1.597728282213211060e-01 -2.194222360849380493e-01 -1.388072996633127332e-04 -3.380260197445750237e-03 -3.745229244232177734e-01 -6.817480325698852539e-01 3.431372577324509621e-03 4.991439729928970337e-02 2.388476133346557617e-01 -7.001012563705444336e-02 4.979714285582304001e-04 3.494430799037218094e-03 1.695825345814228058e-02 -4.557669628411531448e-03 -6.993041932582855225e-02 -3.561033168807625771e-03 5.128206610679626465e-01 -2.803544998168945312e-01 -1.571417599916458130e-01 -1.126600265502929688e+00 6.017013192176818848e-01 2.772158682346343994e-01 -1.234761252999305725e-01 -2.838711440563201904e-01 -4.486520886421203613e-01 5.139950290322303772e-02 -4.667146503925323486e-01 -1.423594425432384014e-03 -2.648557722568511963e-01 6.300369650125503540e-02 1.202613115310668945e-01 -4.452645778656005859e-02 -5.362799018621444702e-02 -5.642364919185638428e-02 3.730924334377050400e-03 -8.462337404489517212e-02 -2.675559818744659424e-01 1.100043877959251404e-01 7.303422093391418457e-01 -1.787206740118563175e-03 -3.575801551342010498e-01 6.004815101623535156e-01 -6.403684020042419434e-01 -4.604231566190719604e-03 1.106809377670288086e-01 -5.133297294378280640e-02 2.458296120166778564e-01 -5.598046300292480737e-06 7.821252569556236267e-03 -2.697544638067483902e-03 -1.270311236381530762e+00 -2.421964257955551147e-01 2.377866059541702271e-01 -3.377512330189347267e-03 3.522524833679199219e-01 -2.009983360767364502e-01 -8.742667734622955322e-02 -7.295835018157958984e-02 -1.390696316957473755e-01 -3.058623075485229492e-01 -2.185070812702178955e-01 -2.824099957942962646e-01 2.154377987608313560e-03 2.506299130618572235e-02 5.577959492802619934e-02 1.144391223788261414e-01 -3.585625588893890381e-01 -8.447745814919471741e-03 4.042682051658630371e-02 4.932580143213272095e-02 -2.290498465299606323e-01 -6.472881436347961426e-01 -3.062113225460052490e-01 8.193818479776382446e-02 2.259632050991058350e-01 -1.702572107315063477e-01 7.420045137405395508e-02 -1.503660343587398529e-02 1.158017441630363464e-01 -1.355981379747390747e-01 -1.293035447597503662e-01 -3.828638792037963867e-02 -8.249154686927795410e-02 1.051412671804428101e-01 3.711353056132793427e-04 -5.417423248291015625e-01 -2.741345763206481934e-01 1.384800970554351807e-01 -3.630833467468619347e-03 1.375566571950912476e-01 -2.081031650304794312e-01 6.748325228691101074e-01
8 2.653691470623016357e-01 1.415175618603825569e-03 -1.360279470682144165e-01 -2.305498812347650528e-03 1.693348139524459839e-01 4.666749536991119385e-01 1.791583001613616943e-02 -1.446918211877346039e-02 4.259068146347999573e-02 -5.607155710458755493e-02 2.220784081146121025e-03 -4.731370136141777039e-03 -3.161547482013702393e-01 -2.785416245460510254e-01 8.771547582000494003e-04 -7.635735720396041870e-02 8.038567751646041870e-02 4.589342474937438965e-01 3.144659334793686867e-03 -1.894316636025905609e-03 -1.345016621053218842e-02 -4.694710951298475266e-03 2.234619576483964920e-03 -4.369977395981550217e-03 -1.991633176803588867e-01 1.509037733078002930e+00 2.014274522662162781e-02 2.120388904586434364e-03 -1.150514781475067139e-01 -1.874052137136459351e-01 -1.214637830853462219e-01 -3.709123134613037109e-01 3.590683639049530029e-01 4.249081760644912720e-02 1.293946623802185059e+00 -2.843146445229649544e-03 -2.964881062507629395e-01 1.292808353900909424e-01 3.051048144698143005e-02 -3.352464437484741211e-01 2.016021013259887695e-01 5.558434501290321350e-02 -4.063673317432403564e-03 -9.431313723325729370e-03 -2.426150143146514893e-01 -1.693915277719497681e-01 7.525945305824279785e-01 2.830860670655965805e-03 2.627219855785369873e-01 -1.781547963619232178e-01 -2.959940768778324127e-02 -5.038282647728919983e-02 -1.995995640754699707e-02 1.999247260391712189e-02 -3.436526656150817871e-02 2.791701350361108780e-03 -7.552233934402465820e-01 1.943100243806838989e-03 -1.500704884529113770e+00 -4.783164858818054199e-01 5.632082372903823853e-02 -4.622345324605703354e-03 8.035191148519515991e-02 2.821883186697959900e-02 -3.017245829105377197e-01 1.103542000055313110e-02 -5.465599149465560913e-02 7.860654592514038086e-01 3.466859459877014160e-01 5.754515528678894043e-01 -5.980371963232755661e-03 -1.671900898218154907e-01 -7.966913282871246338e-02 -9.145945310592651367e-02 1.675146371126174927e-01 1.483523547649383545e-01 -5.696880817413330078e-02 4.509131610393524170e-02 -2.451209425926208496e-01 -4.855727255344390869e-01 -1.694159656763076782e-01 1.460507977753877640e-02 -3.443603962659835815e-02 8.571320027112960815e-02 -1.464072912931442261e-01 1.108931098133325577e-02 4.791441932320594788e-02 -6.774536371231079102e-01 3.667115792632102966e-02 5.805796757340431213e-02 6.267641484737396240e-02 -1.498035937547683716e-01 1.332755084149539471e-03 -3.614798933267593384e-02 -1.709619164466857910e-01 3.527459455654025078e-03 -1.485388725996017456e-01 -1.748377442359924316e+00 2.895971536636352539e-01 6.939339041709899902e-01
9 2.421530932188034058e-01 -7.981920498423278332e-04 -2.947805449366569519e-02 3.451553871855139732e-03 -4.354657530784606934e-01 4.302340447902679443e-01 -7.418605685234069824e-02 -7.563528418540954590e-01 -3.850776702165603638e-02 -6.963051110506057739e-02 -2.558054402470588684e-03 -3.712776815518736839e-03 -2.705469131469726562e-01 2.409742623567581177e-01 -4.834382794797420502e-03 5.272824689745903015e-02 9.044107794761657715e-02 -7.548401355743408203e-01 2.505809534341096878e-03 -4.163261968642473221e-03 -9.613609872758388519e-03 -2.479851944372057915e-03 -1.041218116879463196e-01 4.612986929714679718e-03 7.466824054718017578e-01 9.766818881034851074e-01 -1.210353747010231018e-01 2.279122322797775269e-01 5.183304846286773682e-02 4.168670624494552612e-02 5.568846315145492554e-02 -1.611722946166992188e+00 -8.015052229166030884e-02 2.246078103780746460e-01 2.390531450510025024e-01 -3.431173972785472870e-03 -8.064686059951782227e-01 1.321307420730590820e-01 -1.075179129838943481e-01 -9.767241477966308594e-01 1.639257222414016724e-01 -1.378355771303176880e-01 -3.004095051437616348e-03 5.477750208228826523e-03 -3.332783877849578857e-01 9.556266665458679199e-02 -2.233086228370666504e-01 -3.258242970332503319e-03 -2.366778403520584106e-01 -1.857229471206665039e-01 1.062795072793960571e-01 3.563950769603252411e-03 8.041334897279739380e-02 2.935588359832763672e-01 3.953013122081756592e-01 -1.284576253965497017e-03 2.427529543638229370e-01 3.757882397621870041e-03 -9.184348583221435547e-01 -5.254955291748046875e-01 1.912692189216613770e-01 -3.565371152944862843e-04 3.301972448825836182e-01 7.143163681030273438e-02 2.743133604526519775e-01 -1.094472631812095642e-01 2.578847110271453857e-01 -9.968436360359191895e-01 -9.718869626522064209e-02 -5.311525426805019379e-03 1.079396344721317291e-02 -3.698427602648735046e-02 4.927026107907295227e-02 -4.790864586830139160e-01 -4.242235720157623291e-01 3.181546032428741455e-01 -7.617254741489887238e-03 -7.321700453758239746e-02 1.629850268363952637e-01 -7.056806683540344238e-01 -7.349490374326705933e-02 1.176543757319450378e-01 8.906003087759017944e-02 -9.896738827228546143e-02 -7.775682210922241211e-02 1.043758541345596313e-01 2.386332154273986816e-01 1.521020233631134033e-01 -2.383957244455814362e-02 -3.278473019599914551e-01 -1.282497961074113846e-02 9.140939265489578247e-02 4.833122715353965759e-03 -7.108680903911590576e-02 -1.117527037858963013e-01 6.929086893796920776e-02 1.810388118028640747e-01 -6.405846774578094482e-02 -3.537129238247871399e-02 -6.069566011428833008e-01
10 -4.375464916229248047e-01 3.994769416749477386e-03 8.416818454861640930e-03 3.959892783313989639e-03 -7.800207287073135376e-02 -8.910062313079833984e-01 -1.115993559360504150e-01 -3.729500472545623779e-01 7.345008198171854019e-03 -3.291317448019981384e-02 1.903759315609931946e-03 1.439490704797208309e-03 -7.613775134086608887e-01 -2.293085604906082153e-01 -3.218127239961177111e-04 2.789821475744247437e-02 1.796463578939437866e-01 1.483715623617172241e-01 2.537777647376060486e-03 -4.319315776228904724e-03 -2.533295564353466034e-02 2.054783049970865250e-03 -4.557240381836891174e-02 -4.138755612075328827e-03 3.049514889717102051e-01 1.066719174385070801e+00 -3.036166429519653320e-01 -2.732114791870117188e-01 2.430857568979263306e-01 -3.595356047153472900e-01 -2.146361395716667175e-02 1.816862821578979492e-01 -6.932319998741149902e-01 2.208204865455627441e-01 1.010242462158203125e+00 2.020867075771093369e-03 3.413901329040527344e-01 -3.909076452255249023e-01 -2.469611465930938721e-01 -5.234795808792114258e-01 -2.694497704505920410e-01 -2.334441058337688446e-02 4.490440187510102987e-04 -9.769962728023529053e-02 1.874443888664245605e-01 -5.580612421035766602e-01 5.403304696083068848e-01 -3.807103959843516350e-03 5.983748286962509155e-02 5.123721361160278320e-01 -1.007226929068565369e-01 -1.569794677197933197e-02 2.811279594898223877e-01 1.155436560511589050e-01 5.932281017303466797e-01 -7.228410104289650917e-04 -6.985930800437927246e-01 -2.738228533416986465e-03 -1.422511696815490723e+00 9.256629347801208496e-01 2.866442203521728516e-01 -2.321176463738083839e-03 -3.111854493618011475e-01 8.521904796361923218e-02 -6.732530146837234497e-02 -7.532913982868194580e-02 -2.892768383026123047e-01 7.161751389503479004e-01 -4.681107029318809509e-02 4.231528341770172119e-01 -1.253485027700662613e-02 -2.298739925026893616e-02 1.652479358017444611e-02 -1.062453463673591614e-01 1.226446591317653656e-02 3.958966732025146484e-01 -2.198347449302673340e-01 -5.788574367761611938e-02 -6.762442737817764282e-02 5.697458982467651367e-01 1.978581249713897705e-01 2.812398672103881836e-01 -5.280652549117803574e-03 -1.277924627065658569e-01 4.263420775532722473e-02 4.242489486932754517e-02 2.498082667589187622e-01 -8.311778306961059570e-01 1.626233197748661041e-02 -2.417757511138916016e-01 -7.422786206007003784e-03 -5.016341060400009155e-02 2.556316088885068893e-03 -3.714060187339782715e-01 -1.204516962170600891e-01 1.168735977262258530e-02 -4.243437051773071289e-01 -1.863790035247802734e+00 -2.103561311960220337e-01 5.059109926223754883e-01
11 8.558808565139770508e-01 -4.935139324516057968e-03 -1.425925940275192261e-01 1.891445252113044262e-03 3.309255838394165039e-01 -2.623803615570068359e-01 5.762685090303421021e-02 -1.976080611348152161e-02 -5.867392197251319885e-02 -3.664356470108032227e-02 2.751559019088745117e-03 -2.962960163131356239e-03 -2.159539051353931427e-02 8.161961287260055542e-02 -3.743544220924377441e-03 8.792704343795776367e-02 -1.431220918893814087e-01 4.808493852615356445e-01 -5.012499968870542943e-06 8.477435330860316753e-04 -9.444709867238998413e-03 2.583460882306098938e-03 -1.233851984143257141e-01 3.959472291171550751e-03 2.043130062520503998e-02 1.367490291595458984e+00 1.013785675168037415e-01 5.013171434402465820e-01 2.261324599385261536e-02 7.918730378150939941e-02 -1.256195753812789917e-01 -1.388971805572509766e+00 1.982965022325515747e-01 1.133737862110137939e-01 8.531433343887329102e-01 -2.366266911849379539e-03 -1.012158114463090897e-02 -7.476330548524856567e-02 9.873194694519042969e-01 -1.685710102319717407e-01 1.519100666046142578e-01 -1.434052456170320511e-02 3.462854074314236641e-03 -6.197772920131683350e-02 3.945137858390808105e-01 7.019980344921350479e-03 4.542004764080047607e-01 1.858816016465425491e-03 -3.498031198978424072e-01 -4.164614379405975342e-01 7.818236351013183594e-01 -1.242333576083183289e-01 -1.025448739528656006e-01 7.922152429819107056e-02 -1.664086245000362396e-02 4.078600089997053146e-03 -5.732471868395805359e-02 -3.028774517588317394e-04 -1.158915758132934570e+00 -4.417580962181091309e-01 2.897797524929046631e-01 -1.774480100721120834e-03 -2.867392301559448242e-01 -6.350599229335784912e-02 -3.010437190532684326e-01 -4.033379629254341125e-02 4.763584583997726440e-02 4.153681397438049316e-01 -1.737169772386550903e-01 -6.626577377319335938e-01 -4.559111967682838440e-02 -1.481659412384033203e-01 5.304651707410812378e-02 -9.414263814687728882e-02 1.102372780442237854e-01 -1.019561886787414551e+00 6.158373132348060608e-02 8.416457474231719971e-02 -2.960738539695739746e-01 1.790545284748077393e-01 2.677197158336639404e-01 -8.334457874298095703e-02 7.192896306514739990e-02 8.853732049465179443e-02 -1.514440178871154785e-01 -5.431948229670524597e-03 4.854612424969673157e-02 -3.526400923728942871e-01 -4.215857014060020447e-02 -2.730840072035789490e-02 -2.184841549023985863e-03 -1.716281771659851074e-01 -3.456951119005680084e-03 1.038713380694389343e-01 -2.237242758274078369e-01 -9.107818454504013062e-02 5.085303187370300293e-01 -1.035277605056762695e+00 2.337493598461151123e-01 6.699977517127990723e-01
12 5.370813012123107910e-01 1.992594916373491287e-03 2.273484021425247192e-01 4.243529867380857468e-03 -5.060410499572753906e-01 5.607756972312927246e-01 -5.848309397697448730e-02 -5.037293434143066406e-01 -9.295595437288284302e-02 -9.246473759412765503e-02 2.526440424844622612e-03 -4.429308231920003891e-03 -1.445010066032409668e+00 1.090916525572538376e-02 1.052884384989738464e-03 -3.232927992939949036e-02 -1.023090109229087830e-01 2.133209854364395142e-01 -4.344288725405931473e-03 -2.958837896585464478e-03 1.111305356025695801e-01 3.240656806156039238e-03 1.402593106031417847e-01 -4.635164048522710800e-03 -2.974127233028411865e-01 9.986115694046020508e-01 1.415872275829315186e-01 -3.304059803485870361e-01 -6.702730804681777954e-02 3.051454722881317139e-01 4.062866047024726868e-02 -1.652588695287704468e-01 1.882220655679702759e-01 -2.626857757568359375e-01 9.068472981452941895e-01 2.434778725728392601e-03 -4.818375706672668457e-01 1.698608398437500000e-01 1.763128861784934998e-02 -2.860626578330993652e-01 -6.212430074810981750e-02 -5.518293008208274841e-02 1.099980319850146770e-03 1.068033948540687561e-01 -2.718800492584705353e-02 5.837452411651611328e-01 7.936298251152038574e-01 3.700671484693884850e-03 -2.611854076385498047e-01 -4.661810994148254395e-01 1.092601343989372253e-01 -9.030693769454956055e-02 -2.523463666439056396e-01 1.625300496816635132e-01 -7.833012342453002930e-01 2.552476013079285622e-03 -1.277422159910202026e-01 -4.770954139530658722e-03 -1.257950663566589355e+00 -8.919458985328674316e-01 1.724029332399368286e-01 3.503499086946249008e-03 4.294434189796447754e-01 -2.715287804603576660e-01 -5.433162450790405273e-01 8.192753419280052185e-03 5.269548296928405762e-01 5.785968303680419922e-01 2.244118452072143555e-01 -6.021676659584045410e-01 2.273927070200443268e-02 -2.008158154785633087e-02 5.987474694848060608e-02 5.199309810996055603e-02 4.128496944904327393e-01 1.539047211408615112e-01 3.647115528583526611e-01 -5.535610765218734741e-02 -3.047913908958435059e-01 -3.745131492614746094e-01 -1.892090141773223877e-01 -1.771384477615356445e-01 -9.033184498548507690e-02 5.136952176690101624e-02 -4.695557430386543274e-02 -4.050799086689949036e-02 -2.754639983177185059e-01 -1.611384004354476929e-01 -3.807170316576957703e-02 3.298642337322235107e-01 -2.633180469274520874e-02 -5.712942406535148621e-02 -3.167288377881050110e-03 -3.755303099751472473e-02 2.467585504055023193e-01 1.231112610548734665e-02 8.882291316986083984e-01 -1.249165892601013184e+00 8.590806722640991211e-01 1.549839079380035400e-01
13 1.136077493429183960e-01 -2.212193561717867851e-03 3.666147887706756592e-01 -4.823047202080488205e-03 3.449056148529052734e-01 3.133264183998107910e-01 -1.308764070272445679e-01 -9.339767098426818848e-01 -6.446199119091033936e-02 2.304457128047943115e-01 -9.164756920654326677e-05 2.383514307439327240e-03 4.417678117752075195e-01 -1.803246140480041504e+00 4.741587210446596146e-03 -1.788637787103652954e-02 1.037586852908134460e-01 -6.355629861354827881e-02 -3.359502647072076797e-03 2.999822376295924187e-03 2.532136440277099609e-02 1.549190259538590908e-03 7.552118971943855286e-03 3.023382974788546562e-03 7.365320324897766113e-01 1.610898040235042572e-02 -2.174631804227828979e-01 -5.036480426788330078e-01 -1.744960397481918335e-01 3.296787440776824951e-01 6.313391029834747314e-02 -9.601839780807495117e-01 9.534542262554168701e-02 5.376553907990455627e-02 7.573088407516479492e-01 -4.672238603234291077e-03 -6.558893322944641113e-01 2.089019119739532471e-01 -5.240091681480407715e-01 -8.344400525093078613e-01 3.408201411366462708e-02 1.147245690226554871e-01 -4.896486643701791763e-04 5.819639563560485840e-02 -5.644647479057312012e-01 4.697506129741668701e-01 -4.932298064231872559e-01 3.797095036134123802e-03 2.604452967643737793e-01 -3.584638535976409912e-01 -8.384229242801666260e-02 1.823788136243820190e-02 -1.353251840919256210e-02 -1.455418169498443604e-01 1.114937514066696167e-01 1.435282407328486443e-03 4.925289452075958252e-01 -2.726002130657434464e-03 -6.164948344230651855e-01 -6.449909210205078125e-01 7.890215516090393066e-02 -4.737964365631341934e-03 3.025309741497039795e-01 -2.661470770835876465e-01 -3.252740204334259033e-01 -1.403326690196990967e-01 -1.384821534156799316e-02 -1.165398716926574707e+00 4.284625127911567688e-02 -3.481882512569427490e-01 3.942274954169988632e-03 -9.182434529066085815e-02 2.490667626261711121e-02 -3.763509690761566162e-01 -6.051726937294006348e-01 2.830292284488677979e-01 1.358184665441513062e-01 -1.428855210542678833e-01 -1.695872517302632332e-03 -2.953793704509735107e-01 2.920864224433898926e-01 1.644555479288101196e-01 6.466516852378845215e-02 -4.014582931995391846e-01 -1.659595221281051636e-02 1.791048445738852024e-03 1.906008422374725342e-01 6.361954212188720703e-01 -5.626685544848442078e-02 5.197293590754270554e-03 -6.162312254309654236e-02 -1.310623586177825928e-01 -4.541127011179924011e-03 2.885909676551818848e-01 3.883795738220214844e-01 3.560756519436836243e-02 -1.524792797863483429e-02 -7.835846543312072754e-01 -1.503763943910598755e-01 -6.249301433563232422e-01
14 -1.336432099342346191e-01 1.398456370225176215e-04 -8.677195291966199875e-04 -1.187668181955814362e-03 -1.572712659835815430e-01 -1.733391284942626953e-01 2.032253704965114594e-02 -1.102883934974670410e+00 3.039948642253875732e-02 -1.451153308153152466e-03 4.003379493951797485e-03 -1.379918539896607399e-03 -1.896743476390838623e-01 -1.308210730552673340e+00 1.832076814025640488e-03 3.202949836850166321e-02 -1.626911014318466187e-02 -4.439518451690673828e-01 -4.014355596154928207e-03 -3.125817456748336554e-04 -1.746847061440348625e-03 2.981508616358041763e-03 1.066383626312017441e-02 2.645622473210096359e-03 -3.232127130031585693e-01 -6.293587088584899902e-01 2.410554699599742889e-02 -1.205712318420410156e+00 8.128370344638824463e-02 8.897407678887248039e-04 -1.264414936304092407e-02 -7.391734123229980469e-01 -5.639322102069854736e-02 -1.622359268367290497e-02 -3.823943138122558594e-01 -2.561381261330097914e-04 2.348928898572921753e-01 -3.278548270463943481e-02 -2.027184069156646729e-01 -2.780717909336090088e-01 -8.556536585092544556e-02 2.329245395958423615e-02 4.206815734505653381e-03 2.511754864826798439e-03 1.564567238092422485e-01 8.664704859256744385e-02 -7.177696824073791504e-01 4.000051121693104506e-04 4.884649068117141724e-02 3.244235739111900330e-02 -5.347793921828269958e-02 1.571674644947052002e-02 8.801624178886413574e-03 -1.452641189098358154e-01 -6.034725904464721680e-02 4.696140997111797333e-03 -2.741044014692306519e-02 4.559646360576152802e-03 -1.123892784118652344e+00 2.936103045940399170e-01 -3.436380922794342041e-01 -5.873735062777996063e-04 -7.043274492025375366e-02 3.719873260706663132e-03 6.562383472919464111e-02 2.932688454166054726e-03 -4.706944525241851807e-02 -5.236972495913505554e-02 3.869289159774780273e-01 4.047206938266754150e-01 1.972847618162631989e-03 3.433879464864730835e-02 -3.043694049119949341e-02 1.789231002330780029e-01 1.121875196695327759e-01 3.396607041358947754e-01 1.071417238563299179e-02 7.142781745642423630e-03 1.673158556222915649e-01 1.409267634153366089e-01 -1.053152978420257568e-02 -1.350550167262554169e-02 -3.905354812741279602e-02 2.679683640599250793e-02 6.038263440132141113e-03 -5.719849374145269394e-03 -4.287496954202651978e-02 3.245949745178222656e-01 7.474973797798156738e-03 5.645006150007247925e-02 2.374786650761961937e-03 5.182870663702487946e-03 -1.082415226846933365e-03 -4.941199719905853271e-02 1.939311772584915161e-01 -2.161864377558231354e-02 -1.880441904067993164e-01 6.212710738182067871e-01 1.900366842746734619e-01 1.346699446439743042e-01
15 4.558991640806198120e-03 -4.871692974120378494e-03 -2.023209584876894951e-03 3.166749665979295969e-04 -1.601490424945950508e-03 3.687895135954022408e-03 -3.023804631084203720e-03 3.189100651070475578e-03 -2.921875333413481712e-03 -9.090006933547556400e-04 2.138158073648810387e-03 3.688536118716001511e-03 2.806197153404355049e-03 -2.539604320190846920e-04 -2.746497979387640953e-03 1.906924182549118996e-03 -1.558688934892416000e-03 4.967255517840385437e-03 2.030777977779507637e-03 1.170409843325614929e-03 -4.455525428056716919e-03 -1.676320447586476803e-03 -1.517651369795203209e-03 -1.980941044166684151e-03 1.672258367761969566e-03 -3.196294652298092842e-03 7.351055392064154148e-04 -1.950939767993986607e-03 2.896906342357397079e-03 1.543420716188848019e-03 -4.717857576906681061e-03 2.113664057105779648e-03 -3.910013940185308456e-03 -3.493374213576316833e-03 4.871596116572618484e-03 -4.201146308332681656e-03 1.288601430132985115e-03 2.136852359399199486e-03 -1.830227905884385109e-03 4.677534569054841995e-03 -1.261838129721581936e-03 -3.674273146316409111e-03 1.192792318761348724e-03 1.688110292889177799e-03 3.796678269281983376e-03 2.070862101390957832e-03 9.603291400708258152e-04 1.324492041021585464e-03 -2.196847693994641304e-03 1.917237183079123497e-03 -2.522433642297983170e-03 -4.793297033756971359e-03 2.783522941172122955e-03 -2.495102817192673683e-03 1.503476407378911972e-03 -3.602299373596906662e-03 4.117174539715051651e-03 -8.077402162598446012e-05 3.550328779965639114e-03 4.353656433522701263e-03 -3.878954797983169556e-03 7.871684501878917217e-04 -2.293055877089500427e-03 4.255875013768672943e-03 -1.909292535856366158e-03 -1.430377713404595852e-03 3.045614284928888083e-04 -2.615893492475152016e-03 -2.219707239419221878e-03 -1.541285193525254726e-03 -2.664788044057786465e-04 -1.889868057332932949e-03 4.515899345278739929e-03 3.314279019832611084e-03 1.085312687791883945e-03 2.093613147735595703e-03 2.457178663462400436e-03 -1.759533421136438847e-03 -3.792537609115242958e-03 -1.298244693316519260e-03 1.838853000663220882e-03 -3.786110784858465195e-03 1.235264004208147526e-03 3.802719525992870331e-03 -1.094854436814785004e-03 -2.197233727201819420e-03 4.447952087502926588e-04 -3.250735811889171600e-03 -4.209660924971103668e-03 2.847395604476332664e-03 4.421627148985862732e-03 5.895830108784139156e-04 -1.345442979072686285e-05 2.187869045883417130e-03 -1.191394170746207237e-03 2.762601012364029884e-03 4.029618110507726669e-03 -3.104459261521697044e-03 -4.593320656567811966e-03 4.093268944416195154e-04
16 3.855020403861999512e-01 -4.981174715794622898e-04 6.956504285335540771e-02 4.129805602133274078e-03 -1.271586716175079346e-01 -1.605699509382247925e-01 4.331117123365402222e-02 -6.753820180892944336e-01 -8.150704205036163330e-02 -1.177445799112319946e-01 -3.824437269940972328e-03 -1.382718910463154316e-03 4.806697666645050049e-01 -3.234946429729461670e-01 4.973210394382476807e-03 -1.555147394537925720e-02 5.056736990809440613e-02 2.192526608705520630e-01 4.941507708281278610e-03 -4.830702673643827438e-04 4.347189515829086304e-02 3.155425423756241798e-03 6.906274356879293919e-04 4.148796200752258301e-03 7.840320467948913574e-01 5.332376956939697266e-01 -3.914367407560348511e-02 3.362419605255126953e-01 -2.869864702224731445e-01 1.573414504528045654e-01 -5.720522627234458923e-02 -8.268713355064392090e-01 8.404672890901565552e-02 1.435777097940444946e-01 1.333050578832626343e-01 -8.020678651519119740e-04 -1.103638112545013428e-01 1.478950530290603638e-01 -2.627056837081909180e-01 -5.825995802879333496e-01 4.354918748140335083e-02 -8.123099803924560547e-02 -3.304682672023773193e-03 5.433883145451545715e-02 1.424242276698350906e-02 2.460483908653259277e-01 -8.318333327770233154e-02 4.914768971502780914e-03 -1.093499921262264252e-02 -1.341266930103302002e-01 4.876525402069091797e-01 1.418287213891744614e-02 -1.053071767091751099e-01 2.175706923007965088e-01 -2.060389220714569092e-01 -1.747213304042816162e-03 1.992887407541275024e-01 2.863242989405989647e-03 -7.635675668716430664e-01 -4.618336558341979980e-01 3.951525688171386719e-01 7.939278730191290379e-04 -3.179345652461051941e-02 -1.084617078304290771e-01 -1.580844223499298096e-01 -6.720377504825592041e-02 3.397933244705200195e-01 -9.836121201515197754e-01 -2.717109918594360352e-01 -6.280462741851806641e-01 3.042361699044704437e-03 5.852687172591686249e-04 2.674881927669048309e-02 2.199369966983795166e-01 -4.514465034008026123e-01 1.771710515022277832e-01 1.163088008761405945e-01 -5.583990737795829773e-02 1.469451934099197388e-01 5.277149677276611328e-01 4.582979977130889893e-01 9.370777755975723267e-02 3.089379332959651947e-02 -6.107426062226295471e-02 4.969825595617294312e-02 1.176615953445434570e-01 1.346604079008102417e-01 -7.160690426826477051e-01 -5.129547044634819031e-02 2.581779472529888153e-02 -4.790936410427093506e-02 8.214779943227767944e-02 -1.138282939791679382e-03 4.996366500854492188e-01 1.546214614063501358e-02 2.235700935125350952e-02 3.110226094722747803e-01 -1.168761610984802246e+00 1.189395338296890259e-01 2.937103211879730225e-01
17 -4.397154748439788818e-01 2.085685700876638293e-04 2.591298818588256836e-01 2.268627285957336426e-03 5.767841264605522156e-02 -3.369541764259338379e-01 1.190232336521148682e-01 -1.286520838737487793e+00 2.229843288660049438e-01 2.690038979053497314e-01 3.436045022681355476e-03 -2.149299951270222664e-03 -3.141956329345703125e-01 -1.930217742919921875e+00 2.576698549091815948e-03 8.659864962100982666e-02 -6.917810440063476562e-02 -8.808825910091400146e-02 -6.640276405960321426e-04 2.984887920320034027e-03 -5.504799634218215942e-02 2.223711926490068436e-03 1.132720932364463806e-01 -3.929600643459707499e-04 -2.426595427095890045e-02 -3.306126296520233154e-01 -6.999494135379791260e-02 -1.451278805732727051e+00 -2.391035705804824829e-01 1.002142950892448425e-01 1.140718087553977966e-01 -7.066541910171508789e-01 -8.229520171880722046e-02 -1.348809599876403809e-01 4.947732388973236084e-02 8.973038638941943645e-04 2.183436043560504913e-02 6.092532724142074585e-02 -3.712245523929595947e-01 -6.962765455245971680e-01 8.087915182113647461e-02 6.752377003431320190e-02 -1.978071231860667467e-04 5.695144832134246826e-02 -3.003628551959991455e-01 1.135577335953712463e-01 -5.459697842597961426e-01 1.800577156245708466e-03 6.038855314254760742e-01 -1.284321397542953491e-01 -2.112438976764678955e-01 4.086031764745712280e-02 -2.704723775386810303e-01 -4.511034190654754639e-01 -4.812060296535491943e-01 1.751218806020915508e-03 7.255858927965164185e-02 -3.249502042308449745e-03 -1.691442251205444336e+00 -4.239279776811599731e-03 -1.484769731760025024e-01 3.618180286139249802e-03 5.556856840848922729e-02 -8.626363426446914673e-02 -2.465735077857971191e-01 6.435593962669372559e-02 -3.328318893909454346e-01 -1.766087561845779419e-01 -7.576950639486312866e-02 -4.276139140129089355e-01 1.718287356197834015e-02 -6.162387877702713013e-02 -7.609076797962188721e-02 -1.433241069316864014e-01 -4.493572711944580078e-01 2.679527997970581055e-01 1.601300984621047974e-01 -8.423840254545211792e-02 2.514832019805908203e-01 2.741619646549224854e-01 4.453081488609313965e-01 -1.815023422241210938e-01 -2.139329314231872559e-01 -4.763844236731529236e-02 3.517509996891021729e-02 2.508993446826934814e-02 -1.760824471712112427e-01 1.783812642097473145e-01 1.904004961252212524e-01 8.643942326307296753e-02 1.726692169904708862e-01 -1.479931175708770752e-01 -1.358775334665551782e-04 1.475015729665756226e-01 2.856851816177368164e-01 -1.855809837579727173e-01 -1.109382510185241699e-01 -9.633188694715499878e-02 -3.577496111392974854e-01 -2.675648964941501617e-02
18 -1.949398079887032509e-03 -4.496446810662746429e-03 4.326385387685149908e-04 -1.609220169484615326e-03 3.272503847256302834e-03 7.558114011771976948e-04 -3.207029076293110847e-03 -1.678619650192558765e-03 -3.237698459997773170e-03 7.244716398417949677e-04 -1.418719999492168427e-03 8.846128475852310658e-04 1.674644183367490768e-03 4.309298004955053329e-03 -2.222500741481781006e-03 -3.814774332568049431e-03 -4.865246359258890152e-03 -2.169646322727203369e-03 4.705370229203253984e-04 2.973494585603475571e-03 -3.697818610817193985e-03 4.538187291473150253e-03 -4.949386231601238251e-03 -2.591877244412899017e-03 -1.310074003413319588e-04 2.838213986251503229e-04 -4.224479198455810547e-03 -1.633331063203513622e-03 -1.059043803252279758e-03 -1.122032525017857552e-03 -3.999241162091493607e-03 1.674696570262312889e-03 -2.709401771426200867e-03 1.116943196393549442e-03 4.078962374478578568e-03 -3.159512765705585480e-03 2.728914842009544373e-03 2.415207913145422935e-03 1.576641225256025791e-03 4.142617341130971909e-03 1.913204556331038475e-03 -2.072252565994858742e-03 -7.551069575129076838e-05 -5.315004964359104633e-04 -1.118546715588308871e-04 7.438555476255714893e-04 -1.164876041002571583e-03 1.987187424674630165e-04 -4.867502022534608841e-03 -4.950616508722305298e-03 3.598787356168031693e-03 1.179822356789372861e-05 3.675208427011966705e-03 -4.284608643501996994e-03 3.998513333499431610e-03 -4.466945771127939224e-03 -3.666669363155961037e-03 -1.474526798119768500e-04 -4.157521296292543411e-03 -3.152032149955630302e-03 -3.597088623791933060e-03 -1.621393836103379726e-03 -4.981455393135547638e-03 -1.327157835476100445e-03 -3.506263019517064095e-03 4.370959475636482239e-03 -3.472017124295234680e-03 -3.682654118165373802e-03 2.159656956791877747e-03 -3.890102088917046785e-04 4.195401910692453384e-03 -1.419357489794492722e-03 -9.573363931849598885e-04 -1.228074077516794205e-03 -2.272404963150620461e-03 1.685646362602710724e-03 4.796650900971144438e-04 -2.392498543485999107e-03 2.286804374307394028e-03 -3.955453168600797653e-03 2.197565510869026184e-03 3.130300436168909073e-03 3.510260954499244690e-03 -4.538036882877349854e-03 -4.757228773087263107e-03 -3.923939540982246399e-03 4.373399540781974792e-03 -2.433204557746648788e-03 -1.571951666846871376e-03 2.018437720835208893e-03 -3.846035106107592583e-03 -1.495534786954522133e-03 2.139953896403312683e-03 -2.525632036849856377e-03 -3.931428364012390375e-04 -1.343591720797121525e-03 3.339182585477828979e-03 2.008451381698250771e-03 4.116549971513450146e-04 -1.073059509508311749e-03
19 2.831611633300781250e-01 -2.940457081422209740e-03 1.470683515071868896e-01 -2.511728554964065552e-03 2.510233223438262939e-01 1.343237161636352539e-01 -1.885347217321395874e-01 -1.086252212524414062e+00 -4.686586558818817139e-03 -1.864240132272243500e-02 -3.208747366443276405e-03 -8.268710225820541382e-04 1.654141694307327271e-01 -8.701789975166320801e-01 -3.151692450046539307e-03 8.272610604763031006e-03 1.179640367627143860e-01 4.175832867622375488e-01 4.711796995252370834e-03 2.755308756604790688e-03 8.274473249912261963e-03 -4.533509199973195791e-04 -1.086693257093429565e-01 -4.549070261418819427e-03 9.785456061363220215e-01 2.151993960142135620e-01 -3.150005042552947998e-01 -3.490197360515594482e-01 -2.807380817830562592e-02 -6.829604506492614746e-02 5.738257989287376404e-02 -1.377258777618408203e+00 -2.538574934005737305e-01 3.493790328502655029e-01 3.165715634822845459e-01 -2.790772356092929840e-03 -5.114741325378417969e-01 -5.207283794879913330e-02 7.315104454755783081e-02 -8.371886014938354492e-01 -2.727098390460014343e-02 -5.722515657544136047e-02 4.888346418738365173e-03 4.089643061161041260e-02 -3.302742540836334229e-01 -1.114245504140853882e-01 1.068504214286804199e+00 3.170915646478533745e-03 1.907201670110225677e-02 -1.012357920408248901e-01 1.349119283258914948e-02 4.374454263597726822e-03 -3.585192933678627014e-02 5.161074399948120117e-01 6.476253867149353027e-01 -1.055936329066753387e-03 3.445618152618408203e-01 2.260843757539987564e-03 -9.119582176208496094e-01 -5.236486792564392090e-01 3.813587129116058350e-01 2.219372894614934921e-03 1.710187047719955444e-01 -4.194213822484016418e-02 2.779534459114074707e-01 -1.993424296379089355e-01 2.895489633083343506e-01 -1.065513491630554199e+00 -1.203891709446907043e-01 -3.109265491366386414e-02 2.104137558490037918e-03 4.769460856914520264e-02 8.823139965534210205e-02 -3.142137527465820312e-01 -2.736760973930358887e-01 -3.239650130271911621e-01 1.221203804016113281e-01 -1.364305764436721802e-01 -2.214470356702804565e-01 -3.783977329730987549e-01 1.274406462907791138e-01 1.916552931070327759e-01 4.597407206892967224e-02 -3.265542984008789062e-01 4.216619953513145447e-02 1.307494193315505981e-01 3.936258256435394287e-01 3.661283552646636963e-01 2.256086282432079315e-02 -4.066564440727233887e-01 2.584774605929851532e-02 6.554497033357620239e-02 3.241014434024691582e-03 -2.875176966190338135e-01 -2.158273756504058838e-01 8.493300527334213257e-03 1.442919075489044189e-01 -4.874849319458007812e-01 2.084715813398361206e-01 -7.128067612648010254e-01
20 -5.043973773717880249e-02 1.123454305343329906e-03 -5.502886325120925903e-02 -1.525369472801685333e-03 -8.789945244789123535e-01 3.176752626895904541e-01 8.527771383523941040e-02 -1.381663918495178223e+00 -1.294164061546325684e-01 -4.986437261104583740e-01 1.778488513082265854e-03 6.064184126444160938e-04 -5.393821597099304199e-01 -1.614331603050231934e+00 3.360002534464001656e-03 -5.212449934333562851e-03 -8.707254379987716675e-02 -8.109366893768310547e-01 -1.580972690135240555e-03 9.586400701664388180e-04 7.841765880584716797e-03 3.544198116287589073e-03 8.110038004815578461e-03 3.968423698097467422e-03 -2.825119793415069580e-01 -3.239055573940277100e-01 -2.528425492346286774e-02 -1.485504269599914551e+00 3.130686879158020020e-01 2.604836523532867432e-01 -2.404383569955825806e-01 -6.997317671775817871e-01 -8.075348287820816040e-02 1.910680159926414490e-02 -2.331574112176895142e-01 4.217642708681523800e-04 7.957825064659118652e-02 5.247902125120162964e-02 6.634244322776794434e-02 -5.664043128490447998e-02 -7.436366379261016846e-02 -2.140459716320037842e-01 1.617246074602007866e-03 -5.495965853333473206e-02 2.132089342921972275e-03 1.017756909132003784e-01 -1.037805318832397461e+00 -2.862302120774984360e-03 -1.237524628639221191e+00 2.616188526153564453e-01 -4.088805317878723145e-01 -4.258086532354354858e-02 -8.778558671474456787e-02 -2.128467559814453125e-01 -1.018609106540679932e-01 -2.746891696006059647e-03 -1.598306596279144287e-01 -4.238704859744757414e-04 -1.969326257705688477e+00 3.802420943975448608e-02 -2.891727685928344727e-01 3.635501954704523087e-03 2.287342101335525513e-01 1.143611297011375427e-01 2.195847034454345703e-01 5.855094641447067261e-02 -4.444968700408935547e-02 2.232388108968734741e-01 1.120627894997596741e-01 4.245110154151916504e-01 1.635867916047573090e-02 7.697628438472747803e-02 2.306016627699136734e-03 4.009920060634613037e-01 -3.487708419561386108e-02 8.081713318824768066e-01 1.786078885197639465e-02 7.207922637462615967e-03 1.090004667639732361e-01 -4.347836375236511230e-01 -3.649668395519256592e-01 -1.127351969480514526e-01 1.280772686004638672e-01 9.214784204959869385e-02 -9.403733536601066589e-03 4.016932845115661621e-02 -7.581844925880432129e-02 1.097567826509475708e-01 -1.034414321184158325e-01 1.461404003202915192e-02 -1.034224554896354675e-01 1.897829771041870117e-01 -2.445028163492679596e-03 -3.967162072658538818e-01 7.927081733942031860e-02 1.157718226313591003e-01 -2.902247309684753418e-01 -7.743324339389801025e-02 -1.099072769284248352e-02 7.144991159439086914e-01
21 -2.140817493200302124e-01 1.237378921359777451e-03 1.578607596457004547e-02 -1.697326544672250748e-03 1.182575970888137817e-01 -5.655107498168945312e-01 2.730846777558326721e-02 -1.660919785499572754e-01 -9.214727208018302917e-03 4.950596485286951065e-03 -4.031485412269830704e-03 -4.030028358101844788e-03 -6.068782806396484375e-01 3.283293843269348145e-01 -2.168769569834694266e-04 -2.458829618990421295e-02 3.981257677078247070e-01 -5.836589336395263672e-01 -1.008324034046381712e-06 2.320368308573961258e-03 3.754686564207077026e-02 4.597205203026533127e-03 -2.558484114706516266e-02 -3.739853389561176300e-03 5.293020606040954590e-01 1.283578634262084961e+00 8.630165457725524902e-02 1.224097684025764465e-01 1.952123045921325684e-01 2.027333527803421021e-01 -6.367264688014984131e-02 -8.895214796066284180e-01 -3.661412596702575684e-01 -1.403733789920806885e-01 6.193886995315551758e-01 -3.405454626772552729e-04 1.532835960388183594e-01 -2.144027799367904663e-01 -1.427597180008888245e-02 -6.605335325002670288e-02 -1.225559636950492859e-01 -1.719967089593410492e-02 -3.635353175923228264e-03 3.037454374134540558e-02 2.747624516487121582e-01 4.800029397010803223e-01 2.097246944904327393e-01 -1.928923651576042175e-03 1.425850540399551392e-01 7.967061549425125122e-02 2.416411973536014557e-02 -5.955699458718299866e-02 -4.533774405717849731e-02 4.972052946686744690e-02 -1.406918913125991821e-01 3.924077376723289490e-03 -3.100941479206085205e-01 -2.126704668626189232e-03 -1.334797143936157227e+00 7.729819416999816895e-01 6.473247706890106201e-02 -9.539112215861678123e-05 -2.367666810750961304e-01 -3.159029781818389893e-02 -4.213831424713134766e-01 5.571296066045761108e-02 1.588023304939270020e-01 -9.475441575050354004e-01 3.477668464183807373e-01 -1.681592687964439392e-02 2.102482505142688751e-02 -5.883666500449180603e-02 -4.856226220726966858e-02 -1.469498723745346069e-01 -4.283612966537475586e-01 8.243659138679504395e-02 1.309631913900375366e-01 4.964084550738334656e-02 -4.346446320414543152e-02 1.225169822573661804e-01 -6.249319761991500854e-02 -1.898306757211685181e-01 5.843592062592506409e-02 4.768041521310806274e-02 -6.962803751230239868e-02 -7.744468003511428833e-02 -1.460842490196228027e-01 -5.232828259468078613e-01 2.723205089569091797e-02 1.012055110186338425e-02 3.873161226511001587e-02 -1.230574548244476318e-01 3.244905499741435051e-03 -3.232221901416778564e-01 -2.952247858047485352e-01 3.873914480209350586e-03 1.856957525014877319e-01 -9.770967066287994385e-02 4.202496409416198730e-01 7.415196299552917480e-01
22 -7.836247980594635010e-02 -4.224952310323715210e-03 -1.470805108547210693e-01 -1.720486092381179333e-03 -4.464461207389831543e-01 -3.228617012500762939e-01 -3.087092749774456024e-02 1.105243898928165436e-02 4.288770630955696106e-02 3.636723384261131287e-02 -3.599187592044472694e-03 -3.843548474833369255e-03 -4.308640956878662109e-01 -2.585529088973999023e-01 -4.502147436141967773e-03 2.197461016476154327e-02 6.473135352134704590e-01 -8.565950393676757812e-01 -4.907701164484024048e-03 -4.541921894997358322e-03 -6.739077717065811157e-02 -1.972185680642724037e-03 -3.368873847648501396e-03 2.498861285857856274e-04 -1.111990064382553101e-01 1.079008340835571289e+00 -9.555874764919281006e-02 2.330760937184095383e-03 4.500643610954284668e-01 1.273715961724519730e-02 -2.309882082045078278e-02 -7.018701732158660889e-02 -3.550885021686553955e-01 1.291368752717971802e-01 9.456296563148498535e-01 -3.293887246400117874e-03 3.972104936838150024e-02 -8.749313652515411377e-02 -5.282655954360961914e-01 3.442989885807037354e-01 8.511083573102951050e-02 4.110349342226982117e-02 -6.543736089952290058e-04 -2.809299342334270477e-02 2.655647322535514832e-02 -7.526160776615142822e-02 7.210705280303955078e-01 3.572464454919099808e-03 2.045729011297225952e-01 4.685281217098236084e-01 -6.315866112709045410e-02 -3.219786658883094788e-02 1.520904600620269775e-01 -1.476465314626693726e-01 3.480449020862579346e-01 -4.083647858351469040e-03 -1.086191087961196899e-01 -6.757817463949322701e-04 -1.239278435707092285e+00 2.393057793378829956e-01 1.679205894470214844e-01 -2.022675907937809825e-04 -2.068601995706558228e-01 1.863891333341598511e-01 -1.162491068243980408e-01 -7.927517406642436981e-03 -2.100147902965545654e-01 4.176372289657592773e-01 -3.991604745388031006e-01 -4.274914562702178955e-01 -6.355822086334228516e-02 -1.417709738016128540e-01 -1.303100027143955231e-02 -1.330326944589614868e-01 -1.590756326913833618e-01 9.933350086212158203e-01 -2.612305879592895508e-01 1.554981525987386703e-02 -2.148510366678237915e-01 4.874947667121887207e-02 6.623254716396331787e-02 1.742647439241409302e-01 2.184106409549713135e-02 3.496152535080909729e-02 -6.332289427518844604e-02 2.986249700188636780e-02 1.270204633474349976e-01 -1.571656316518783569e-01 -5.767721682786941528e-02 -1.105968654155731201e-01 -4.611344635486602783e-02 -8.351614326238632202e-02 -1.903741504065692425e-03 -2.572411894798278809e-01 -1.739003807306289673e-01 6.637365370988845825e-02 1.487782001495361328e-01 -7.220172286033630371e-01 -3.722961843013763428e-01 1.177883982658386230e+00
23 -6.696718744933605194e-03 2.919193357229232788e-03 4.368312656879425049e-02 -4.180836491286754608e-03 1.216906160116195679e-01 2.638854086399078369e-01 -1.638037618249654770e-03 7.604971528053283691e-02 -2.128321677446365356e-02 1.973884366452693939e-02 3.064920019824057817e-04 4.971333313733339310e-03 -4.519830942153930664e-01 5.516210105270147324e-03 -3.806412685662508011e-03 6.703366991132497787e-03 -2.224385552108287811e-02 4.575619399547576904e-01 3.138732397928833961e-03 1.902150455862283707e-03 -8.085604757070541382e-03 4.640683997422456741e-03 4.290016368031501770e-02 2.679989440366625786e-03 9.302081167697906494e-02 1.346064925193786621e+00 2.482122182846069336e-02 2.042403072118759155e-01 -4.218022897839546204e-02 4.204903244972229004e-01 5.822954699397087097e-03 -7.116758823394775391e-02 1.536193639039993286e-01 -8.783207833766937256e-02 1.033471465110778809e+00 -4.688029643148183823e-03 3.531212452799081802e-03 4.622243717312812805e-02 1.543588638305664062e-01 -7.669714838266372681e-02 9.720575809478759766e-02 2.172137238085269928e-02 -1.720435568131506443e-03 -4.763330519199371338e-02 -1.113659366965293884e-01 6.018954515457153320e-01 5.351768732070922852e-01 3.035347210243344307e-03 3.735004365444183350e-02 1.288947314023971558e-01 -9.332078695297241211e-02 -2.202309202402830124e-03 -2.096994034945964813e-02 -1.940151453018188477e-01 -1.072283387184143066e-01 -3.431487130001187325e-03 -5.178476125001907349e-02 -4.486176650971174240e-03 -9.963898658752441406e-01 -1.513865739107131958e-01 1.689926534891128540e-01 -2.211169630754739046e-04 2.954749390482902527e-02 4.738008137792348862e-03 -4.034653604030609131e-01 2.378377690911293030e-02 1.153829917311668396e-01 1.393829733133316040e-01 -3.302177488803863525e-01 -5.514891147613525391e-01 -1.856900006532669067e-02 -3.195538744330406189e-02 -6.086318287998437881e-03 -1.359853055328130722e-02 -3.189783096313476562e-01 -2.158672362565994263e-01 1.246127113699913025e-02 -4.022359102964401245e-02 -1.218715161085128784e-01 -1.171948164701461792e-01 -1.531515568494796753e-01 -2.894642762839794159e-02 -7.412071339786052704e-03 1.149209123104810715e-02 -5.895417556166648865e-02 -1.671849749982357025e-02 -5.167579278349876404e-02 -3.046161234378814697e-01 -4.114407300949096680e-02 2.641408517956733704e-02 -1.748604141175746918e-02 -3.666929900646209717e-02 4.749644082039594650e-03 3.066201135516166687e-02 -1.506705433130264282e-01 6.432561669498682022e-03 3.261725008487701416e-01 -1.467065691947937012e+00 -2.685690224170684814e-01 6.160473227500915527e-01
24 -4.256952702999114990e-01 1.150475814938545227e-03 -7.952347397804260254e-01 1.818647491745650768e-03 -1.587707251310348511e-01 -1.103243157267570496e-01 1.549284756183624268e-01 -4.408888518810272217e-01 -9.647742845118045807e-04 -1.084146462380886078e-02 -1.265156548470258713e-03 4.378731828182935715e-03 -6.067805364727973938e-02 -1.850400090217590332e+00 3.704789094626903534e-03 -8.082021772861480713e-02 -3.884533345699310303e-01 2.720618844032287598e-01 4.786744248121976852e-03 -2.758612623438239098e-03 2.978481166064739227e-02 -2.413359237834811211e-03 -2.217786461114883423e-01 1.855945331044495106e-03 -2.668794989585876465e-01 1.808689385652542114e-01 3.813034296035766602e-02 -5.431504249572753906e-01 3.342552185058593750e-01 -4.063191264867782593e-02 7.951969653367996216e-02 6.022064685821533203e-01 -4.061064124107360840e-01 4.639297723770141602e-01 1.163418889045715332e+00 -1.171383657492697239e-03 3.038228452205657959e-01 -2.671103179454803467e-01 3.103758096694946289e-01 -1.308224052190780640e-01 -7.440000027418136597e-02 -1.319473832845687866e-01 -1.185041852295398712e-03 8.071519434452056885e-02 -1.513032913208007812e-01 -4.290146529674530029e-01 -8.351989984512329102e-01 2.089231042191386223e-03 -3.841943144798278809e-01 7.978792190551757812e-01 -4.995658099651336670e-01 1.520011574029922485e-02 2.809892892837524414e-01 1.598758697509765625e-01 5.874695181846618652e-01 -4.853273741900920868e-03 -2.436782121658325195e-01 9.431838407181203365e-05 -1.023280024528503418e+00 2.898724079132080078e-01 -8.311027288436889648e-02 -1.893625129014253616e-03 -7.826071232557296753e-02 2.038818448781967163e-01 3.648256063461303711e-01 -1.369198113679885864e-01 4.221710935235023499e-02 4.730022549629211426e-01 1.153612285852432251e-01 8.012993335723876953e-01 5.129035934805870056e-02 1.275900155305862427e-01 3.358713537454605103e-02 -2.506262972019612789e-04 2.656445801258087158e-01 -2.908738851547241211e-01 -4.770256280899047852e-01 2.934499680995941162e-01 1.562241762876510620e-01 3.835611343383789062e-01 -5.332598462700843811e-02 2.365094870328903198e-01 -7.554553449153900146e-02 3.301373422145843506e-01 9.917809814214706421e-02 1.370077431201934814e-01 3.702147901058197021e-01 1.204844489693641663e-01 2.641798555850982666e-02 -1.681413650512695312e-01 -7.581847906112670898e-02 8.279626071453094482e-02 -8.732100250199437141e-04 -3.184128999710083008e-01 2.456701993942260742e-01 7.968726754188537598e-02 -4.781306087970733643e-01 -1.788482189178466797e+00 2.448455989360809326e-01 3.852026164531707764e-01
25 5.448521114885807037e-04 -4.190923180431127548e-03 -3.886440303176641464e-03 -2.078558085486292839e-03 1.675110193900763988e-03 1.371577149257063866e-03 3.226057393476366997e-03 -1.331325736828148365e-03 4.962523002177476883e-03 4.273618571460247040e-03 -7.282339502125978470e-04 1.900851260870695114e-03 -1.834130525821819901e-04 -4.072054754942655563e-03 -2.999569755047559738e-03 1.186004839837551117e-03 -2.719278680160641670e-03 -1.759613282047212124e-03 1.445658504962921143e-03 1.345931785181164742e-03 1.047933474183082581e-03 1.970957498997449875e-03 -7.055715104797855020e-05 2.477583941072225571e-03 1.981597859412431717e-03 7.644588476978242397e-04 -1.322809839621186256e-03 3.695500781759619713e-03 8.826760458759963512e-04 8.015930652618408203e-04 -4.889355506747961044e-03 -1.036479603499174118e-03 -3.585335100069642067e-03 7.422913913615047932e-04 -1.844234997406601906e-03 -5.109925405122339725e-04 2.217573113739490509e-03 -2.628728514537215233e-03 3.035456640645861626e-03 -2.533759921789169312e-03 4.393735434859991074e-03 3.514317097142338753e-03 -2.304811729118227959e-03 -8.089031325653195381e-05 -4.667372908443212509e-03 4.394633229821920395e-03 3.181332256644964218e-03 -2.264946466311812401e-03 3.158586332574486732e-03 4.131954628974199295e-03 -2.286184346303343773e-03 3.111984580755233765e-03 -4.231185186654329300e-03 -1.520524849183857441e-03 -4.033617151435464621e-04 -1.001040684059262276e-03 3.056141547858715057e-03 -4.557165375445038080e-04 8.798527996987104416e-04 -1.333973021246492863e-03 -2.881256164982914925e-03 -1.792124356143176556e-03 -9.684734977781772614e-04 -4.658502526581287384e-03 2.017857768805697560e-04 3.060015151277184486e-03 2.460207324475049973e-03 1.293196110054850578e-03 -4.550744779407978058e-03 -3.130322089418768883e-03 -9.854235686361789703e-04 -5.376419867388904095e-04 -1.279542921110987663e-03 4.274502396583557129e-03 4.064266569912433624e-03 -3.957079257816076279e-03 -4.433300637174397707e-04 -4.040718544274568558e-03 1.838198630139231682e-03 4.192282445728778839e-03 4.524562973529100418e-03 -3.706947201862931252e-03 2.200978342443704605e-03 -3.653111401945352554e-03 -4.369495436549186707e-03 1.483234344050288200e-03 -1.247527427040040493e-03 -1.003325800411403179e-03 2.705072285607457161e-03 4.574297927320003510e-03 3.080118913203477859e-03 1.195849385112524033e-03 3.112510312348604202e-03 1.592406071722507477e-03 -2.950071590021252632e-03 -4.877750296145677567e-03 2.363080624490976334e-03 -1.189267961308360100e-03 -3.918516915291547775e-03 -1.711690216325223446e-03
26 8.741897344589233398e-02 -4.726635292172431946e-03 -2.758434228599071503e-02 -4.759186413139104843e-03 -1.356345564126968384e-01 -2.315076291561126709e-01 5.523499101400375366e-03 -3.569087982177734375e-01 -7.781831081956624985e-03 -1.279724575579166412e-02 -2.450024941936135292e-03 4.510923754423856735e-03 7.806694507598876953e-02 -2.916451692581176758e-01 -2.253797370940446854e-03 -8.800334297120571136e-03 3.739601969718933105e-01 -9.921532273292541504e-01 -1.897857058793306351e-03 1.371991122141480446e-03 1.050915103405714035e-03 -1.340307062491774559e-03 -6.921003013849258423e-02 -3.601461648941040039e-03 4.014548659324645996e-01 6.568917036056518555e-01 -1.003675907850265503e-01 1.027006655931472778e-01 7.821201533079147339e-02 2.534503042697906494e-01 -1.030589342117309570e-01 -9.446588754653930664e-01 -6.573518365621566772e-02 5.092541128396987915e-02 2.904312908649444580e-01 4.493975080549716949e-03 1.695146560668945312e-01 2.088526822626590729e-02 -5.420489907264709473e-01 -1.554894447326660156e-01 8.222208358347415924e-03 7.676020264625549316e-02 -4.671033471822738647e-03 -2.120500244200229645e-02 2.299129068851470947e-01 4.088966250419616699e-01 -3.867003023624420166e-01 2.836545696482062340e-03 1.585293859243392944e-01 -4.696442279964685440e-03 2.024000287055969238e-01 -2.182336710393428802e-02 1.376164853572845459e-01 -1.913450062274932861e-01 2.515219748020172119e-01 2.830829937011003494e-03 -2.931221127510070801e-01 8.166454499587416649e-04 -9.482624530792236328e-01 7.625705003738403320e-02 1.225186660885810852e-01 1.135499449446797371e-03 -1.325141340494155884e-01 8.492178283631801605e-03 -3.107980787754058838e-01 -4.833859950304031372e-02 1.036740560084581375e-02 -3.401483893394470215e-01 -1.151665896177291870e-01 6.486916542053222656e-02 1.071863155812025070e-02 -1.551844477653503418e-01 -9.536480531096458435e-03 1.129726320505142212e-01 -6.023647189140319824e-01 4.615129828453063965e-01 -5.278663337230682373e-02 3.163488209247589111e-02 1.873448044061660767e-01 2.986378371715545654e-01 1.258560121059417725e-01 3.384253382682800293e-02 -8.721173740923404694e-03 -7.045465707778930664e-02 -1.423682570457458496e-01 -8.212268352508544922e-03 4.877442121505737305e-02 -2.409288734197616577e-01 2.083157654851675034e-03 -1.500595062971115112e-01 5.338261835277080536e-03 -1.016660109162330627e-01 2.388604916632175446e-03 1.175310611724853516e-01 8.146662265062332153e-03 2.151447907090187073e-02 -1.915943175554275513e-01 -2.700777351856231689e-01 -3.193872272968292236e-01 4.826847910881042480e-01
27 1.200382132083177567e-03 -1.192901632748544216e-03 2.407595748081803322e-03 2.096808282658457756e-03 -4.321077372878789902e-03 1.095485989935696125e-03 2.868646522983908653e-03 -7.433965220116078854e-05 8.610528893768787384e-04 -3.493944415822625160e-03 1.857544179074466228e-03 8.624721886008046567e-06 4.193141125142574310e-03 -3.048647660762071609e-03 2.075646538287401199e-03 -3.401637310162186623e-03 -2.055552089586853981e-03 3.026085672900080681e-03 -2.470267936587333679e-03 3.934239037334918976e-03 4.205713514238595963e-03 -3.752353601157665253e-03 -2.102146856486797333e-03 -1.719209481962025166e-03 3.193187061697244644e-03 -3.166378010064363480e-03 -3.293870016932487488e-03 1.166080473922193050e-03 3.882092889398336411e-03 -9.526534704491496086e-04 4.850713594350963831e-04 -1.743146684020757675e-03 3.732468700036406517e-03 -2.059410093352198601e-03 -5.521778948605060577e-04 2.453603374306112528e-04 -1.868680119514465332e-03 -1.627116696909070015e-03 3.385696094483137131e-03 -1.464963541366159916e-03 -2.607889473438262939e-03 2.038340317085385323e-03 1.835609000409021974e-04 -4.118645098060369492e-03 -4.458162467926740646e-03 -3.124141367152333260e-03 -2.175253583118319511e-03 1.677009393461048603e-03 -4.522692412137985229e-03 -4.888263065367937088e-03 3.389055142179131508e-03 -2.779060276225209236e-03 -2.872249577194452286e-03 3.126749768853187561e-03 -2.573634032160043716e-03 2.814345527440309525e-03 3.010536776855587959e-03 2.109209774062037468e-03 -5.494884098879992962e-04 -2.336333971470594406e-03 -2.567796967923641205e-03 -3.918649163097143173e-03 -4.340956453233957291e-03 -1.930483384057879448e-03 3.483398584648966789e-03 -2.669440349563956261e-03 -4.450307693332433701e-03 1.379461027681827545e-03 -1.460803090594708920e-03 -5.488669194164685905e-05 -2.290106611326336861e-03 -3.088464494794607162e-03 -1.176371355541050434e-03 3.537417389452457428e-03 -3.844218561425805092e-03 -4.357841331511735916e-03 -1.061218063114210963e-05 -6.024971371516585350e-04 -3.720067208632826805e-03 4.477874375879764557e-03 1.659153960645198822e-03 -9.028538479469716549e-04 4.164312966167926788e-03 1.576840993948280811e-03 2.489195670932531357e-03 -8.155605755746364594e-04 -4.489228129386901855e-03 -1.660511828958988190e-03 2.838122600223869085e-04 4.331573843955993652e-03 1.224124222062528133e-03 -2.545964205637574196e-03 1.918668160215020180e-03 -3.127509728074073792e-03 4.436656367033720016e-03 2.345283748582005501e-03 -3.872663713991641998e-03 -4.882432986050844193e-03 3.433720907196402550e-03 3.588420338928699493e-03
28 -1.630183309316635132e-01 -2.976433373987674713e-03 1.802889071404933929e-02 2.146326005458831787e-03 -1.126549020409584045e-01 -5.565785765647888184e-01 -1.463464796543121338e-01 -1.141120672225952148e+00 -4.937269166111946106e-02 -1.885868981480598450e-02 -3.560537006705999374e-03 4.055273253470659256e-03 -3.618524596095085144e-02 -8.997977972030639648e-01 3.826344851404428482e-03 6.266372743993997574e-03 1.217975690960884094e-01 -1.740161533234640956e-04 -3.223079256713390350e-03 1.247962121851742268e-03 -2.679244382306933403e-03 -1.809122739359736443e-03 -1.086921617388725281e-01 2.261837013065814972e-03 1.206072330474853516e+00 4.483609795570373535e-01 -1.880672723054885864e-01 -2.052378952503204346e-01 -1.107892766594886780e-01 -1.420542690902948380e-02 -2.192163281142711639e-02 -2.200014591217041016e+00 -1.506764292716979980e-01 3.385314047336578369e-01 4.938475191593170166e-01 3.278291551396250725e-03 1.270702183246612549e-01 -1.657851189374923706e-01 3.085724115371704102e-01 -6.088663339614868164e-01 -2.077811807394027710e-01 -5.216484423726797104e-03 3.272818401455879211e-03 -4.813420120626688004e-03 1.350268125534057617e-01 -4.087054729461669922e-02 7.081068158149719238e-01 -1.195510616526007652e-03 -2.634915411472320557e-01 -3.134312629699707031e-01 9.231672435998916626e-02 -1.133274473249912262e-02 1.194931473582983017e-02 5.500592589378356934e-01 5.819919109344482422e-01 4.339424776844680309e-04 2.327261418104171753e-01 -1.955535728484392166e-03 -1.203526258468627930e+00 5.232041478157043457e-01 5.466073751449584961e-01 -1.763343345373868942e-03 -2.872740626335144043e-01 -1.507250685244798660e-02 1.968216598033905029e-01 -1.719434410333633423e-01 2.587781250476837158e-01 -1.043029308319091797e+00 -2.876783311367034912e-01 -7.500670850276947021e-02 2.824539318680763245e-03 -9.353281930088996887e-03 6.999930739402770996e-02 -1.371570974588394165e-01 -4.153386652469635010e-01 -5.585574358701705933e-02 1.694550178945064545e-02 -8.076523989439010620e-02 -3.026511669158935547e-01 2.720874845981597900e-01 2.556380927562713623e-01 1.558886170387268066e-01 1.112652570009231567e-01 -2.465601712465286255e-01 1.120283640921115875e-02 1.208885312080383301e-01 3.454058468341827393e-01 6.040586233139038086e-01 -1.032915338873863220e-02 -2.354940474033355713e-01 3.516070311889052391e-03 2.078864909708499908e-02 -1.385643845424056053e-03 -2.314654365181922913e-02 -2.212907969951629639e-01 1.788167282938957214e-02 1.537715941667556763e-01 6.955558061599731445e-01 1.243655942380428314e-02 -1.522939372807741165e-02
29 -2.563804388046264648e-01 2.835817635059356689e-03 1.630591452121734619e-01 1.726331654936075211e-03 -1.047144606709480286e-01 -2.015857845544815063e-01 -9.078463912010192871e-02 -9.886022210121154785e-01 -5.154990404844284058e-02 9.939444251358509064e-03 5.903544370085000992e-04 1.855107955634593964e-03 1.686938703060150146e-01 -8.463575243949890137e-01 -3.220667422283440828e-04 2.851623343303799629e-03 4.247003421187400818e-02 -1.990582346916198730e-01 -2.149834763258695602e-03 4.025367554277181625e-03 2.661328529939055443e-03 2.872903132811188698e-03 -1.386694796383380890e-02 -4.666049964725971222e-03 4.191451072692871094e-01 2.771011590957641602e-01 -1.166335940361022949e-01 -1.387153416872024536e-01 -1.648627519607543945e-01 -3.971361555159091949e-03 8.100569248199462891e-03 -2.003461122512817383e+00 6.457549333572387695e-02 1.009511649608612061e-01 3.735055923461914062e-01 3.498073900118470192e-03 8.875752240419387817e-02 6.455084681510925293e-02 -3.822363168001174927e-02 -4.382215738296508789e-01 -6.672082841396331787e-02 1.515021175146102905e-02 4.384850151836872101e-03 -2.572651393711566925e-02 8.564186096191406250e-02 -7.720972597599029541e-02 -2.292700484395027161e-02 -1.898135873489081860e-03 -7.152833044528961182e-02 -2.514598667621612549e-01 1.068361997604370117e-01 1.625495962798595428e-02 -3.710502351168543100e-04 1.578843593597412109e-01 1.729871183633804321e-01 3.712297417223453522e-03 4.166407883167266846e-02 2.119523938745260239e-03 -1.050267815589904785e+00 2.616452276706695557e-01 2.719157934188842773e-01 -4.122195969102904201e-05 -5.304867029190063477e-02 -8.822736144065856934e-02 2.494394592940807343e-02 -9.744688868522644043e-02 1.844569481909275055e-02 -1.496066153049468994e-01 -2.446367293596267700e-01 -2.076690793037414551e-01 4.446676466614007950e-03 5.672499537467956543e-03 1.326190214604139328e-02 -2.805759757757186890e-02 -1.489078402519226074e-01 1.418367922306060791e-01 6.514702737331390381e-02 -1.040704175829887390e-01 -8.825030922889709473e-02 2.750716507434844971e-01 1.889864355325698853e-01 9.564453363418579102e-02 5.707495287060737610e-02 -2.089555114507675171e-01 1.698281615972518921e-02 2.933422476053237915e-02 1.560675203800201416e-01 4.460066258907318115e-01 -3.437604010105133057e-02 -1.223844513297080994e-01 -3.380594030022621155e-02 -2.289634663611650467e-03 9.152238490059971809e-04 3.493458032608032227e-01 6.414059549570083618e-02 4.471490532159805298e-02 7.760270684957504272e-02 6.443040966987609863e-01 -1.453274637460708618e-01 6.938941031694412231e-02
30 -1.830655783414840698e-01 4.384613595902919769e-03 3.820015117526054382e-02 -3.293452784419059753e-03 1.517741978168487549e-01 3.250475525856018066e-01 2.957357093691825867e-02 -6.980967521667480469e-01 8.206678321585059166e-04 3.696009516716003418e-03 -4.379345569759607315e-03 -2.769188256934285164e-03 2.478222101926803589e-01 -1.860276311635971069e-01 -4.115905612707138062e-03 -2.889653481543064117e-02 -1.257410347461700439e-01 4.507801532745361328e-01 4.313296638429164886e-03 4.785411059856414795e-03 1.990133337676525116e-02 -4.973589908331632614e-03 -1.157464832067489624e-02 -4.984406288713216782e-03 6.378298997879028320e-01 7.090269327163696289e-01 -4.850373789668083191e-02 1.967766284942626953e-01 -2.626219987869262695e-01 4.967379942536354065e-02 1.947363466024398804e-02 -1.439553499221801758e+00 2.483153492212295532e-01 4.209631308913230896e-02 9.679822623729705811e-02 4.330534487962722778e-03 7.952664047479629517e-02 2.293131947517395020e-01 3.414256125688552856e-02 -5.497097969055175781e-01 4.033007472753524780e-02 2.961301617324352264e-02 -2.129151253029704094e-03 -3.616933897137641907e-02 -4.247756674885749817e-02 8.245079219341278076e-02 -9.838337451219558716e-02 3.886346938088536263e-03 -6.040235981345176697e-02 -3.805673867464065552e-02 1.451017567887902260e-03 3.850713744759559631e-02 3.155009075999259949e-02 6.541035324335098267e-02 -1.692402921617031097e-02 2.986475359648466110e-03 -2.049603015184402466e-01 -3.074667649343609810e-03 -1.007239341735839844e+00 -1.843847930431365967e-01 2.311740964651107788e-01 -5.437912768684327602e-04 1.794724315404891968e-01 -3.339347988367080688e-02 -2.369658648967742920e-02 -3.685937449336051941e-02 -1.199596934020519257e-02 -4.131208658218383789e-01 -1.657988578081130981e-01 2.910576760768890381e-01 1.829932443797588348e-02 5.378518998622894287e-02 1.071033533662557602e-02 2.311748862266540527e-01 -4.652123749256134033e-01 -3.964940011501312256e-01 1.368918363004922867e-02 -1.110379863530397415e-02 1.909559518098831177e-01 1.573545932769775391e-01 -2.304908074438571930e-02 4.987239465117454529e-02 -2.080113440752029419e-02 -6.117760762572288513e-02 2.613502554595470428e-02 3.919643536210060120e-02 5.145107954740524292e-02 -3.991612493991851807e-01 -9.213602170348167419e-03 -2.887559309601783752e-02 -9.762384928762912750e-03 4.279898479580879211e-02 3.793422598391771317e-03 4.748229980468750000e-01 -8.833625912666320801e-02 7.250411808490753174e-02 -2.454206645488739014e-01 -1.899925470352172852e-01 -3.217590153217315674e-01 2.419280260801315308e-01
31 -2.557877898216247559e-01 -3.553590970113873482e-03 1.247729361057281494e-01 -1.450821873731911182e-03 -1.487650126218795776e-01 1.579706817865371704e-01 -2.160620093345642090e-01 -5.158090591430664062e-01 -1.652075164020061493e-02 3.245830908417701721e-02 -4.436611663550138474e-03 -6.576975574716925621e-04 -1.168102741241455078e+00 7.223229408264160156e-01 1.133343088440597057e-03 -6.946441531181335449e-02 -3.021118640899658203e-01 -1.152673084288835526e-02 7.602542755194008350e-04 3.903169417753815651e-03 4.847414325922727585e-03 -4.127108026295900345e-03 -1.695630997419357300e-01 9.420078131370246410e-04 8.531371951103210449e-01 1.591039776802062988e+00 -3.796225190162658691e-01 1.762442290782928467e-01 -7.594276964664459229e-02 1.540555059909820557e-01 -1.524033304303884506e-02 -8.127249479293823242e-01 -1.615190953016281128e-01 2.279318720102310181e-01 8.327174186706542969e-01 -4.601696040481328964e-03 -6.018972396850585938e-01 -4.267956689000129700e-02 2.226980216801166534e-02 -1.072484374046325684e+00 -1.311455070972442627e-01 6.101026758551597595e-02 -1.272669760510325432e-03 -5.429233238101005554e-02 -3.031303286552429199e-01 3.623092174530029297e-01 -4.540219604969024658e-01 8.540584822185337543e-04 -1.476916670799255371e-01 -3.310195803642272949e-01 -2.194511592388153076e-01 1.444347854703664780e-02 3.121401071548461914e-01 2.011008858680725098e-01 7.802574634552001953e-01 3.383525647222995758e-03 -2.123452723026275635e-01 -1.228619017638266087e-03 -1.175878167152404785e+00 8.499906957149505615e-02 3.744575977325439453e-01 1.302373246289789677e-03 3.525567054748535156e-01 -4.015426710247993469e-02 -9.913213551044464111e-02 -1.423594504594802856e-01 2.747626006603240967e-01 -4.950937330722808838e-01 -2.398220896720886230e-01 2.665829360485076904e-01 2.697834745049476624e-02 -1.052455604076385498e-01 -1.878046803176403046e-02 -4.242350459098815918e-01 -5.879844427108764648e-01 -2.847504019737243652e-01 -8.119001984596252441e-02 -8.486640453338623047e-02 2.632830142974853516e-01 -6.251584887504577637e-01 -1.715217232704162598e-01 1.950341016054153442e-01 -5.637100338935852051e-02 -2.915743887424468994e-01 -1.021330431103706360e-01 5.777974054217338562e-02 2.658781707286834717e-01 -6.610168814659118652e-01 2.463800087571144104e-02 -3.326066434383392334e-01 1.734595396555960178e-03 2.919834572821855545e-03 -1.804367639124393463e-04 -2.651097774505615234e-01 5.386867374181747437e-02 5.007934942841529846e-02 -3.810984641313552856e-02 -1.423821449279785156e+00 -2.684821784496307373e-01 -6.231404542922973633e-01
32 1.130303293466567993e-01 -1.821291865780949593e-03 4.790550097823143005e-02 -3.276091068983078003e-03 -1.360207051038742065e-01 2.753931581974029541e-01 -5.811871588230133057e-02 -9.152638912200927734e-01 -6.269544363021850586e-02 6.561366841197013855e-03 -4.028440453112125397e-04 3.488883157842792571e-05 3.113015294075012207e-01 -3.722644150257110596e-01 4.801713294000364840e-05 -2.431526547297835350e-03 3.058165125548839569e-02 -3.056071400642395020e-01 -3.768244525417685509e-03 1.909012557007372379e-03 -8.200037293136119843e-03 -3.700500587001442909e-03 -6.452923268079757690e-02 9.950867388397455215e-04 5.869146585464477539e-01 2.650479376316070557e-01 -1.508020460605621338e-01 4.444267228245735168e-02 -2.214339375495910645e-01 1.254741251468658447e-01 9.540339931845664978e-03 -1.561908364295959473e+00 1.031568646430969238e-01 1.703245639801025391e-01 -1.210464537143707275e-01 -1.461355015635490417e-03 6.672490388154983521e-02 3.626964613795280457e-02 -1.172290593385696411e-01 -4.002487063407897949e-01 1.012971326708793640e-01 4.782039206475019455e-03 -2.204768592491745949e-03 -3.894921019673347473e-02 9.993468970060348511e-02 9.702375531196594238e-02 -4.063200578093528748e-02 7.688476762268692255e-05 -1.193787083029747009e-01 1.633287966251373291e-02 3.162577748298645020e-01 9.891969151794910431e-03 -3.667702898383140564e-02 1.546214371919631958e-01 2.854677140712738037e-01 7.068938575685024261e-04 9.498219937086105347e-02 2.628372050821781158e-03 -8.488991856575012207e-01 -3.857391476631164551e-01 2.980727255344390869e-01 2.352537820115685463e-03 8.768090605735778809e-02 7.660058327019214630e-03 3.693759674206376076e-03 -1.216781660914421082e-01 1.180884018540382385e-01 -4.239313900470733643e-01 -2.789410352706909180e-01 -2.100984901189804077e-01 7.013414986431598663e-03 2.486798726022243500e-02 1.163971424102783203e-02 2.642500028014183044e-02 -3.142345249652862549e-01 6.757826358079910278e-02 7.100219279527664185e-02 -8.281827718019485474e-02 7.113987207412719727e-02 1.637328416109085083e-01 -1.080984529107809067e-02 1.075619533658027649e-01 8.423386514186859131e-02 -1.422128230333328247e-01 1.286853384226560593e-02 9.045633673667907715e-02 2.121373265981674194e-01 1.007619947195053101e-01 -4.950114339590072632e-02 -2.870575785636901855e-01 -3.972003608942031860e-02 8.858958259224891663e-03 -1.443961518816649914e-03 2.747710943222045898e-01 -2.951000072062015533e-02 7.145634293556213379e-02 5.045292153954505920e-02 2.085058540105819702e-01 -1.728760451078414917e-01 -5.760222673416137695e-02
33 -3.034101333469152451e-03 -3.018986200913786888e-03 -2.096230862662196159e-03 -3.155912971124053001e-03 1.060969778336584568e-03 -3.720880486071109772e-03 3.357961541041731834e-03 -2.374080242589116096e-03 4.434642847627401352e-03 -1.794103765860199928e-03 -4.613868426531553268e-03 4.261679947376251221e-03 1.365658012218773365e-03 2.224875846877694130e-03 -8.115835953503847122e-04 4.782902542501688004e-03 7.095074979588389397e-04 2.995217451825737953e-03 1.999844331294298172e-03 -2.393054775893688202e-03 -4.148042935412377119e-04 -2.326238667592406273e-03 2.500212984159588814e-03 -4.618875682353973389e-03 1.396010484313592315e-04 1.727763097733259201e-03 -9.073993423953652382e-04 4.311826080083847046e-03 3.586808918043971062e-03 1.085677416995167732e-03 -2.597576472908258438e-03 -4.500727634876966476e-03 -2.604272216558456421e-03 -3.162966342642903328e-03 3.713581711053848267e-03 -3.779450664296746254e-03 -5.100502166897058487e-04 1.682343194261193275e-03 -1.577779621584340930e-04 3.226307453587651253e-03 1.579415984451770782e-03 2.586450660601258278e-03 4.858526866883039474e-03 -4.931298084557056427e-03 -2.847991709131747484e-05 3.579432610422372818e-03 -1.229467452503740788e-03 1.399659900926053524e-03 -3.519062651321291924e-03 3.083476098254323006e-03 -1.881083124317228794e-03 4.103111568838357925e-03 1.668478827923536301e-03 -2.959055826067924500e-03 2.905424451455473900e-03 1.149471383541822433e-03 -6.337190861813724041e-04 -3.811859060078859329e-03 -1.312101492658257484e-03 4.778673872351646423e-03 -2.575908554717898369e-03 3.456091741099953651e-03 6.308990414254367352e-04 9.522500331513583660e-04 -2.981449244543910027e-03 2.250535180792212486e-04 -1.278838142752647400e-03 -4.479703493416309357e-03 -4.247183911502361298e-03 4.785890690982341766e-03 2.849517040885984898e-04 1.598788192495703697e-03 3.249855246394872665e-03 4.686750937253236771e-03 3.398613538593053818e-03 -3.928214777261018753e-03 -4.886871203780174255e-03 1.736771780997514725e-03 1.538452925160527229e-03 -2.835159189999103546e-03 1.527810120023787022e-03 4.134747665375471115e-03 -1.400434994138777256e-03 3.277379786595702171e-03 1.038178219459950924e-03 3.129820805042982101e-03 3.780998988077044487e-03 -3.155850805342197418e-03 -9.645586251281201839e-04 4.158440977334976196e-03 -3.382559807505458593e-04 3.633896820247173309e-03 3.025144804269075394e-03 4.644818603992462158e-03 -5.465171416290104389e-04 -3.249173751100897789e-03 4.852548707276582718e-03 -2.420040080323815346e-03 -4.162040073424577713e-03 -7.885870872996747494e-04
34 -3.277687355875968933e-02 1.053682528436183929e-03 1.933913826942443848e-01 4.079369828104972839e-03 -1.987262070178985596e-01 2.832747697830200195e-01 -1.314301639795303345e-01 -1.018001317977905273e+00 -4.032221809029579163e-02 -1.514593064785003662e-01 -3.601946169510483742e-03 3.099510679021477699e-03 -1.715609133243560791e-01 -1.189338922500610352e+00 -4.679522011429071426e-03 -6.147586274892091751e-03 7.335069775581359863e-02 -2.554057538509368896e-01 -1.319638802669942379e-03 7.564320112578570843e-04 3.939881548285484314e-02 1.014134380966424942e-03 -3.370941802859306335e-02 8.724902872927486897e-04 4.375256896018981934e-01 -4.408724233508110046e-02 -1.640873253345489502e-01 -5.604955554008483887e-01 -3.298385143280029297e-01 2.359845191240310669e-01 -2.986748516559600830e-02 -1.271973490715026855e+00 2.999824285507202148e-01 1.476653367280960083e-01 3.238292336463928223e-01 2.271428937092423439e-03 -1.605886667966842651e-01 8.890637755393981934e-02 2.872709883376955986e-03 -9.430459141731262207e-02 -4.784920811653137207e-02 -7.491026818752288818e-02 -3.942130133509635925e-03 5.273240804672241211e-02 -1.993499249219894409e-01 6.503193825483322144e-02 1.570913046598434448e-01 -2.251259284093976021e-03 -8.408504724502563477e-02 -3.904027342796325684e-01 -9.041036665439605713e-02 -2.998823765665292740e-03 7.442023605108261108e-03 3.289789557456970215e-01 3.291456103324890137e-01 -4.355917684733867645e-03 -1.137379109859466553e-01 8.588435011915862560e-04 -1.141296863555908203e+00 -2.945096194744110107e-01 2.425733506679534912e-01 4.953941795974969864e-03 1.923760026693344116e-01 -1.039457246661186218e-01 3.700783550739288330e-01 -1.504799723625183105e-01 3.120508790016174316e-01 -1.291599869728088379e-02 -2.912305891513824463e-01 2.942082881927490234e-01 6.129588466137647629e-03 7.167640328407287598e-02 3.720005601644515991e-02 -3.482440859079360962e-02 -2.786737307906150818e-02 2.072170823812484741e-01 5.824381113052368164e-02 -1.217638552188873291e-01 -1.556543707847595215e-01 -1.667935103178024292e-01 -1.475555822253227234e-03 1.349623799324035645e-01 1.129139587283134460e-02 -2.841639816761016846e-01 -5.197208374738693237e-02 4.226756095886230469e-02 2.207669168710708618e-01 5.210817456245422363e-01 -1.105059590190649033e-02 -1.653762310743331909e-01 -2.482165023684501648e-02 7.007890194654464722e-02 2.833511214703321457e-03 1.636587828397750854e-01 4.895321652293205261e-02 5.085244029760360718e-02 -1.656100526452064514e-02 2.368286997079849243e-01 -6.041201204061508179e-02 2.348684221506118774e-01
