34 100
34 -0.34348115056988393 0.4855160171040027 -1.8289845107327591 0.2746193827272954 0.14702309889121593 0.26355271709897105 -0.17311532716031802 -0.3222218660542918 -1.038628097490728 -1.5489295312436995 -1.02709623756154 1.2889990413629573 -0.2395681553761091 -0.758211026282201 0.11268187031164018 0.6526536262026724 -0.5011031296081481 0.25770175835358033 0.14358785473773314 -0.264348402016032 0.1500852370350854 1.8002846108934556 0.12810905266994432 0.1129607033048159 0.09049827911614017 0.2556249808884749 -1.0012345656805317 -0.3963387948643926 -0.14151316065737304 -0.10769760436781345 0.3276492368490661 0.11408746100296126 -0.34398026497536516 0.018805097819922848 -0.6018358615552748 -1.8719283786298921 -0.13168195776306274 0.3228451340903327 0.7623543081069099 -0.44226443576050634 0.7162536681592965 -1.0117330252009047 -0.9228720659338399 -0.014874719860711354 0.5811999085345727 -0.26768459702594843 0.19444868094356704 0.08564004289468423 0.2868758611327852 0.3900379123713288 -0.06626946671560768 0.15659918246986126 -1.536626355922995 -0.032319197914111475 -0.2483736382526898 0.8292942450972735 -0.5233552375670706 0.3494478514728814 -0.7602483271515678 -0.43196354936153997 -0.5557313496244357 0.5127542832120866 0.775284449012916 0.8497258428625578 0.004749913025227916 -0.20634521242864218 1.1115349368583056 0.4356439143620646 -0.7818961907150583 -0.403610599315755 -1.43910085835702 0.2628667750185276 -0.2037195543197081 -0.6112482969306902 0.6940775415931574 0.8896073407917278 -0.4565079083269956 -0.30201178576971727 -0.3846272927774294 -0.022020521955601585 1.029151212249453 -0.39940945348109147 -0.024763030374494753 0.4216906850995321 -1.637390167393823 1.4907376025273351 -1.559823398303032 -0.8246467613395733 0.9783730917813103 -0.6763358067194037 -0.33655849329938076 0.5952788826300618 -0.016268623603432904 0.3578975720479635 -1.7433798086007952 -0.17057608092651 -1.6007037456857038 0.657299044092845 -1.2012260451129866 0.2867134587073325
1 -0.22263073182538998 -0.32481505500166424 -0.50263783372443 -0.2010549095130121 -0.06564466436356797 -1.4003458900240107 -0.1139649402081528 -1.0030458373582707 0.07243787835177688 0.4610659174143204 0.30527550003058895 1.2397490121701664 0.0678621787263201 -1.1168318891087559 -0.3684780105124075 -0.08965707319003595 -0.5083929449228892 -0.9165049844031508 -1.3618961890969994 -0.0951949968663849 -1.3573757939049942 -0.127226995021979 -0.6013608634250608 -1.6455946371972123 1.0772344572825892 -0.8201754542599621 -0.9765089403557993 -0.008354334607421588 0.27196746443164005 0.02062863612284888 -0.1404628691129048 1.3240108997488123 -0.44148322520666117 0.5559666564378926 -0.39806959117056606 0.17313280127433686 0.040601727319346234 0.0668632617010218 1.3056369246430282 1.0100677730092495 -0.4999300407882894 -0.8241311040141477 1.4664753904493735 0.5976942328115886 -0.23749032198025208 -0.07929232453311143 -0.159267668378975 1.092347648785418 0.007965221412664838 -0.9032627902421753 -0.1854787324166423 1.2590460731955448 0.0981268361290968 0.5178592803851569 -0.6598978782819752 0.14822527710101172 -0.4404018848142655 -0.551150978327634 -0.47475579465250456 -1.321130322131697 0.17434961870636118 -0.10805312727166744 -0.2835526087387534 -0.055551746499002956 -1.1594872395068738 -0.19713259818132714 0.7551094382191078 -1.5759311692323856 0.6895580571890607 0.03564593862041532 0.3408859983871047 -0.8572102353589416 -0.013726688877701001 -0.7928807013697724 0.21517002928863038 1.5529967375626919 0.4309314742080264 -0.03489750964254313 -0.13858712313577032 -0.5430375639958599 -0.48081504514738865 0.014291644830507457 0.011215301670517177 0.30669325265382885 0.32506265470094164 0.2189263299398084 2.324542540830528 -0.768515950964847 -0.1512404345684112 -0.9805056525823919 -0.1583677584463158 -0.9248459928874404 0.8099752227434539 0.10309173321470523 1.0489036936331586 0.15245529326285234 -0.14845046446178947 0.44719961778974626 0.4002072363606683 1.7895325252629206
33 0.29373636381763213 -0.025479098725552558 1.549431761281805 -1.1438406226463342 -0.7143624558379269 0.18381724584580578 -0.043087292249401554 0.4282976439369727 0.018271638702762785 -1.902265075861525 2.29229525501618 0.6609908322410737 -0.24115534981462958 -0.9525414587292412 0.08521362364985366 -0.1051641994837406 -0.9187132209198854 -1.7112231756545506 0.2596248416295884 -0.1283665525031533 0.2886916280882876 -0.8336894417406256 -0.15051498759972207 0.1833128139717197 0.47874305300854986 -1.6496087519261635 0.6789126827110663 -0.27887425540778166 1.8711093611675877 0.5826711742705928 0.1474421033392737 -0.72589414753091 0.8644043143797264 -0.5470331895909948 -1.1745314028382212 0.22603606892664732 0.7590782904654401 -0.9951272917904027 -0.8358672820625141 0.40963170369373436 1.1373146575388484 0.7910406953865465 -0.5178666231660014 -0.5117722359504709 -0.31083113579913063 0.3798738121552776 -0.34120275488423113 -0.10919632233971525 -0.2800216117352748 0.6589546035574925 0.35662052872140315 -1.2389170128370817 -1.8021003859448879 -1.1110520786572864 -1.1225062700748505 1.2967390584364198 0.08014982229790317 0.07627178553931165 -0.9068246942601612 0.37068021706758186 -0.18807106632896264 -0.4496015489647968 0.5925117536666152 -0.15011454007369693 0.8856790965746574 -0.9108376204748425 0.9600658902002001 0.5531701424876437 -0.5564751313433771 0.2640269553995333 -0.009542591819760532 0.10107216522944802 -1.530218373318224 -0.07607152817856908 0.7433249257997114 0.35186497234506636 0.006891908714470957 0.11183659681300281 0.7203414945157374 -2.2587085319162448 0.35031931178588077 -0.20569676267637402 -0.15760340792502708 -0.046742504271860844 0.344179250404157 0.5122424539357753 0.8442456277130709 0.6522338062295346 -0.12342528627766754 0.3063194031615705 0.24660300996647297 -0.22778085260798925 -0.5302237347230238 -0.13731990545725586 -0.014538091839818152 -0.6398322709198534 -0.18864295069687254 -0.03977841081198174 -0.6709862288443339 -0.0473890933901952
3 0.6127136516576722 0.25315839646431004 0.34466087524210914 -0.1647200780641182 0.6644882941910348 -0.0754233863306931 0.9938854135677174 -0.07021260633327334 0.32466994273033717 -0.6193423855947303 -0.00022032387209506383 -2.1336400768111905 0.5771948119960216 0.10901991889735368 -0.18487765256350694 -1.0216115787823778 0.17741718813946675 -0.3255390338039986 0.053643878545175556 -1.2066353998484334 -0.7207371693307315 0.08095756659145421 -1.1380488431600209 -0.8072748816450599 -0.9545591263659944 1.5378645132016857 0.5767883803593361 -0.23101287822852543 0.14834409606767496 0.8063232557600079 -0.2727641482780567 0.06108397632616133 -0.6304303195053119 -0.1497814934530531 -1.0607124256912743 0.3034543432491758 0.1747895536702527 -1.456249016507817 0.3314425850883005 0.43537176294301166 1.6682652109848046 -0.6694206851892309 -0.013979254944779168 -0.29778706567861446 0.07152265561043804 0.5927704384873855 1.4485716154519497 -0.8718427124881738 0.14257626789484062 -1.1310516102046873 1.5403169328843147 0.9474918669822028 0.19601788212437948 1.947834252591261 -0.8285087784525181 -0.2590256816432384 0.1652084211972844 -0.8147970956992165 0.3759468501203287 -0.9934966175788458 0.3297067580486729 -1.7669196089899504 0.4189053266760604 1.1944892840064743 -0.268477366402444 0.6855302563412345 -0.24201821636307316 -0.4139978908280172 -0.1860146819568598 0.6887301010842343 -0.1305074517211573 -0.28319308261859116 -0.7351436451969438 0.4679873347306318 -0.15492713362133084 -0.28137096969303094 -0.6279555268548942 0.11430681894402606 -0.946844559617188 0.2561841683994547 -0.07581371759745267 -0.16781465359143977 0.06728731985278019 -0.3437293256382827 0.13841573958761735 0.02993427711740916 -0.11952020666104765 0.20228292822477895 0.07684822311583976 0.9529042600716713 0.9454639968085254 1.1250239614918671 -0.24390376041132117 -1.1810191248830195 -0.7472221745571129 0.0378794493594615 -0.897375202205056 1.0324029136564195 -0.4694935261591958 0.31566464545901435
2 0.5344036376940495 -0.06220169718739998 -0.0650399043091754 0.3277770745293994 -0.4493782020910646 0.01279406867205783 0.110564156623671 0.6795456701929543 0.25412061008425024 -0.7425886457175759 -1.77799880626798 0.04399919709896447 -0.2553814731137762 -0.28503437424614136 -0.36873734242541206 1.053660487445735 0.41897938979272437 -0.46708698047506514 -0.2659039997508692 -0.21208848262764196 -0.502692259895306 -2.3629294740983484 -0.5296437383205128 -0.6585180992371555 -0.017557028160308574 -0.09667908158017777 -1.8883956088405414 0.5986397758996379 -0.49215902500064523 0.047036811961811864 -0.12784755816932197 0.47153653860715017 0.4034070805613164 0.04527629462297448 0.13355272163630608 0.1811574651949472 -0.5271784760619316 0.2202956175686581 -0.06127101071256183 0.539243725522317 0.5668788586088002 -1.0588117840632427 0.0657534234233542 0.0456023612836322 -1.3326985493533736 -0.09964897729222666 0.8673132483778385 1.5610803082615077 -0.6665220004616462 0.30067748950555956 0.533237968356024 -1.9050548018226034 -0.24413831359875945 -0.3642705901330594 0.6062855307799735 0.011951800820460906 0.7073653214186153 0.734265154752326 -0.9257250994484921 0.05993165060897472 -0.8531847365013308 0.580641061348927 1.1381600708419344 -0.25003453676742615 -0.00714521433581864 0.8430838958931272 0.6395427151528156 0.26858206481015784 2.2057451858089556 0.8801978729823777 -0.05588575020671726 1.8051627402885966 0.9772160677981191 -0.6450249360544024 0.4034084333559064 0.16574908531728316 -1.2325482070793146 0.5324129023937487 -0.978885926037654 0.6936098706021511 -0.7487779225884594 -0.43743038276156865 0.6159073999251247 -0.9306035847111419 0.8295293388651422 0.051868694258355066 -0.5948249321109109 2.150911502451473 -0.38140147268632857 -0.1048706004980324 0.9684183627732553 0.5315176001246504 0.13316955973117564 0.12772790634874756 0.04492398201793513 0.716969804779258 0.13854515285715024 0.35424588792581596 0.22269016475891532 0.20630283135971023
4 0.5834204306284112 -0.1440415535451209 -0.4683688009122497 1.5975374635419357 0.06992781562741844 0.04782311888153903 0.132182411729363 0.37520593560027976 -0.25242869871723045 -0.06193416879724033 1.153658240590122 0.9903748807305686 0.4973228491306556 0.45547924377861854 -0.03365373020460856 0.9215318353810761 0.3836965763299109 -0.6890162180929075 -0.1540960037160104 0.5995031789920519 -0.07048271777942154 1.8305806783543737 0.04045727724583385 0.5270932108604305 0.4897766113688294 -0.2092063158194692 0.6379715575517257 0.10902433373433965 0.1137660736909718 -0.4221662508715452 -1.0164126548192165 0.258451731068221 -0.015473840822434753 -0.008890781510535888 0.5931951801258114 0.07122181065537668 -0.13840683098460937 0.1320645967577471 1.2636736128304944 0.7900385927757313 -0.12319348098455074 -0.3209503512336692 0.5123288420364966 0.149450675689813 1.8322212617180058 0.1833572779246668 1.6189267602666022 -1.7235590540688488 -0.7180734078973043 0.3196409572984289 0.4599698553508779 -0.9181686061524454 0.2994290019275467 0.4772215479414589 -0.6725274032113416 -0.08902475485060816 0.6196208231005714 0.01932795473561587 -0.15619831140650361 0.39967371734521745 0.1313326695121126 0.2769428715644577 0.2549542820087992 -0.097523351739013 -0.1476632668761983 -0.7725549318992323 0.33846480607922624 1.000097895843885 0.09582427139528953 -0.9523984979846276 1.267270886912914 -0.4307756328472421 -0.0410008360583717 -0.5398882065477592 -0.20017708193243697 0.32941608844014947 -0.7208897115657337 0.6833173541290567 -0.4941661946213081 0.6707048781555676 -0.20468396059015256 0.6607399955944065 0.5960889661155392 -2.0332865443433685 0.936577715044725 -0.029979367037245158 0.24725204822219704 0.6356626110203446 -0.2744007324258464 -0.24575095128059113 -0.29442525054837365 1.0035362782477555 -0.35053189329580986 0.018240310397222178 0.29587877614681296 0.5100625626527505 -0.17356709007684895 -0.3996464214790579 0.9990737424136878 0.5020796969672291
32 1.6530650691906235 -0.17450877501775625 -1.1859305165327654 0.15359873086778927 -0.8487447419452551 -0.5383037136975626 -0.5671566807806969 0.6045664314072484 -0.05371999096102517 0.24205562717450244 -0.6424504530138853 0.51708323637444 0.2559862025359852 0.6056645943483371 -0.19682624032386092 -0.6024417425938109 -0.0015045388727760276 0.6570921389956453 -0.04851523026655971 1.658799816443867 -0.3543955657982262 0.4100548100662939 0.5855570573329629 -0.7438692745550659 -0.5433315590039323 -0.021645920021497046 0.07372680497360512 0.9715097125902673 0.058037977500497044 0.17466387871586253 -0.0644545810422871 -0.29422813187300995 0.17531976347487924 0.2850079246458558 0.01670183911783072 -0.25925517532786135 -0.12794547938680825 -0.12078182278899659 -1.151568637525932 -0.06426898087607051 0.3940363265890567 0.17026517174029485 -0.21145094151599342 0.2497297954148847 0.11368336714317534 -0.8866781012564371 0.0389600361035913 -0.5255836006078577 0.22131654739183174 0.0018260914396903394 0.5943512047037031 0.1411142588102186 0.131480221715508 -1.1606956397563466 0.25946542142782164 1.537642872134474 -0.19777197069098504 0.2640956201607054 0.5362190081503221 -0.748253608284475 0.17761136532551486 -1.3072081798323731 -0.014568395454722502 -0.055710980343132065 1.0408835973832564 -1.1278246309770101 -0.7988971670287768 0.1665033725410064 1.1756124348705912 -0.5949321164905547 0.16899718643165096 -0.9015065723527405 -0.7525872643128736 -0.25483670589237356 -0.7465300197248395 0.5955210107373488 -1.3726290559153351 -0.5972775767720424 -0.5994744913207746 0.4848598186511267 -1.1547283916671014 0.2559267465469427 -0.7708999021285482 1.4435612061299938 0.1380239580391327 -0.3687733648273302 -0.3586486873834785 -0.540832512771197 -0.2061932635160935 1.2651649232776503 0.9018555864723691 -1.4245871543192927 0.23468942229775583 0.10138913543829119 0.2534645775453085 -0.2947210386677205 -0.16495204472092048 -0.036671240479734336 -0.02383880972865933 -0.08132914845727274
24 -0.49808963205384404 -0.3914868433380479 -0.5242827450537967 -1.0747349319364807 -0.4312833509647637 0.38125664277432253 -0.13797295767193402 1.3580452150973317 0.7965780846032663 -0.7321438891747536 0.3385339985893134 -0.21008221956793224 0.3086266789275981 0.9871074549029824 0.4959421386968061 -0.07980243965830776 -0.3144206001996998 1.0648581668877226 0.7115422572975122 -0.5107889067111564 -0.1081845852763475 -0.405824541791903 0.8522063587198072 0.46465891923854113 0.3263522848683892 0.14436173917725004 0.866190358767016 -1.0013653442368105 1.0883239290966251 -0.5858651355303987 -0.33790704685577005 0.1412333673174839 -0.07361888980515993 -0.5152473981839137 0.12456084542670787 0.054287617545547506 -0.04755595603782196 0.09133640453525202 0.1785622415179124 -0.2139910536831222 -0.8337171581912911 -1.939412011697637 0.39084887253065986 0.4509448017464644 -0.620159050449696 0.2861756412698749 -0.4237106742206882 0.010124326702160347 0.3382559605182208 1.623968971069683 -1.1854355864855004 0.3432680295850155 0.1864602571844136 -0.19131393752101478 0.2542807585374702 0.812114179443185 -0.4750872580431348 1.6764419176156795 0.34121572288041135 -0.6393620186266141 0.41055357425650024 -0.8523638952836765 0.03465161537904783 0.25166325594510225 -0.8490421605179093 -1.0301154085609978 -0.833486487469609 -0.5011357504200213 -0.09154975475171112 0.6880238807363812 0.4806579631607472 -0.1436371065770085 0.21917693789829337 -0.3193350307832429 0.24899315715353545 -0.8430242777373691 0.3502799814558227 -0.3684405078676221 -1.3959162005061407 -0.039381166475689684 0.3769704492015556 -0.6957534686417001 0.3191018373512741 -0.12628490138141168 0.4875696248894697 -0.08426466625671937 0.04794862705587301 -0.5834233029310925 -0.4529385282767101 -0.008607754344315374 -0.36420705577858653 0.9609395423596748 -0.28689895018417677 0.12832171273774426 0.33545898427849447 0.28733073996339636 -0.2149230172626922 0.6010931215181813 -0.17831879829037547 -0.09343458594549064
9 -0.114534576169148 0.7958195354077328 0.753623421699739 -0.753062850226498 0.09436427263636638 -0.3063091403778414 0.6909726502163168 0.8350444396465172 0.21370975132000702 0.23395613759288975 -0.28466729914342687 0.26636632683906214 1.186283428985123 -0.1456316656405719 -0.18987861775585257 1.0879147154619437 -0.513417907016379 -0.2750903969754056 -0.37858425673080204 0.15488138356041925 0.1848019886487336 0.29316261411324757 0.2527142910012018 0.24867927554632022 0.5276231101742651 0.5202108960471664 -0.6072976397203353 -0.04266900039865341 -0.061102513370492766 0.3207863883038142 0.09704912431131885 0.14461112674479065 0.5293832013865123 -0.15119102628861952 -0.4753419451115221 0.21680630234151127 0.3782734129465178 -0.48932007639903496 0.19782879240651857 -0.4018830488560643 0.6639253270855952 -0.20488551747845113 0.8171520371277333 0.16267284746281693 0.5166436119470932 -0.025268522150550237 -0.10436612583957659 0.04714435274404124 -0.1146197880966026 1.079140391000761 0.23205137057325173 0.10448482472645174 -0.017499634686083048 -0.19160721831017394 0.6759431264235053 -0.12450427879385084 -0.43856278384372027 -1.2183433868211393 -0.37561335107042215 -0.12199128810210495 -0.09746790938711546 -0.6280265723293177 -0.23435402877750372 -0.9663513145659346 0.19508891826224536 0.4554761070744677 -0.30451822968018694 -0.6766187463613633 0.23299994123354179 -0.17984915348815267 -0.1473405163800281 -0.42178155992357336 0.2550143680115826 0.23449681993433058 -0.7219193291194524 -0.015007580774521724 -0.3614002971041884 -1.009222552609684 0.9890898658627542 0.3797163882249021 0.8233791109079064 0.08426060415639822 -0.48229350126483317 0.2894567934013408 -0.24703861886847406 -0.035990977070445726 -0.2680193875928275 0.36693266727220025 -0.45281826981632456 -0.10854055895344757 -0.47070768780530975 0.7418052479308491 0.3788062545670989 -0.3400192074325949 -0.061563105139326495 -0.22772566351587986 0.2197417106723376 -0.47408127555333773 0.21984679395113355 -0.747148768243535
14 0.2782198106012024 0.6591248122773766 -0.05096347141259232 0.7735326602727719 0.36772097844217994 0.2395532700213281 0.28024860012215086 -0.04394561591309188 -0.3467779051603772 -0.8896664735285786 -0.5810913285769537 -0.2565961156846925 0.30252354306665813 -1.3219429680102763 -0.1909387634893048 0.14122513758144395 0.3561379651086114 0.41176901488776985 0.29857811795020345 -0.2037231672501167 -1.5803835266479673 -0.009713345644666142 -0.5402123327772096 0.27261424149341057 -0.7431989892614222 -0.26856282898369604 0.7956936977197361 0.3138997381945081 0.5272299220878286 0.29680518089454044 -0.4452322951687639 -0.34290218744490786 0.47237117297922726 0.0893004491568619 -0.2898253068502173 -0.45332312447628426 -0.05717352109413506 0.37289060553220754 -1.2913735420242338 -0.1079544213945736 0.20474239858480858 0.6553230329643835 0.02936858415018495 0.9047323787408279 0.13195704880901435 -0.19325712283538113 -0.2568875740350143 -0.11979177632304018 -0.358938698236637 -0.026801875180229695 -1.6372663840998523 0.014772075801551116 -0.024922022127794468 -0.3918886513428643 -0.2651895884938423 -0.3933210975146402 -0.703568834502053 -0.4476448901665299 0.09282844456114954 0.24196150823807164 -0.5547730009121806 0.9874185133355193 -0.4747902694955459 0.00696274929154667 0.07026364046892537 1.64567627483605 -0.46935998820685193 0.1504448480244471 0.6453062390786343 0.11588589340198226 0.7416125989616692 -1.267067501240776 -0.3945861125211403 0.13197307566385846 -0.3969503569657994 -0.37817265639001696 0.16091994264852175 0.2595932498261001 -0.8182472721768929 -0.3912736914979703 -0.12338782144492698 0.3859338571523141 0.5299109373635074 0.23725703073239868 0.08155494219315364 -0.2546058722610803 0.3384132188886716 -0.44684734546115434 -0.03003683990439916 -0.6188851457351199 -0.16488549916350687 0.9542092531214205 0.07237559763985532 -0.09362173187607555 0.03294688442283314 0.23261611108029845 0.37047803699652854 -0.2686795934462459 0.3207664567784731 0.33597105041615727
6 0.1092233887464801 -0.27343323320997887 0.9529044225960046 -0.2835024134168491 -0.033332466145187964 -0.015448804673170143 -0.11861518912341888 -0.4279012603987419 0.6711232429578748 1.0760428892134557 0.12170507513211576 1.0339383922268324 -0.32972216354681677 -0.7734522223875477 -0.21094543369445246 -0.7281960520400829 -0.03987175177698491 0.7512101206488366 -0.5408507054428477 -1.0971659809071221 0.9454796934666864 -0.8032705949456657 -0.34295038172549863 -0.3258191575901274 0.017359194872007676 -0.3933456358847442 1.223956173597675 -0.638503573480173 -1.1100303074264704 -0.2290716700728091 0.4441480027379208 -0.06647136074343392 -0.18338706128495513 0.13598910800230274 0.30159685299014466 0.049484351662104895 0.42090675678218353 0.18119680095017635 -0.7367726165949445 -0.18514123434496035 0.09900394239009142 -0.38468558173815337 -0.15863351990189617 1.0649791065940912 0.6407325827457013 0.5945244590323712 1.2894792537919662 0.4805544261174649 0.18358125290764038 -1.2903166902018437 0.1625145964523799 -0.3503435120234345 0.7889829920077018 -1.197796580666446 -0.17285789723182268 -0.4001435228399933 -0.919954287613776 0.2586263687193538 -0.14406773392091954 0.058459202612120724 0.1416794236377205 0.5975024002508617 0.2043301296789702 0.15027855020467532 0.0153513205805413 -0.9711439209488664 -0.17434708951182454 -0.3387597556859389 -0.12455959244958786 0.23953454276142538 -0.4352476768938203 0.2516333328815436 -0.2942921356091916 -0.44068663967697047 -1.2821201452237316 -0.3365378943857444 -0.3122200582982165 -0.4924084356977642 0.0257370568156144 0.28594481990542553 0.5185202424556087 0.9313432785640718 0.2097586210295187 -0.8436290619127838 -1.2371530937835882 0.20965998324562068 -0.07995817492838372 -0.10753261410215353 -0.23259254483309874 0.50720154818694 -0.04223890156892558 0.4617865404345234 0.3638149679060782 0.8510912566869138 0.020740265643199574 0.24931063167973047 -0.054314748622134916 0.07706965662047227 0.0960919098556842 0.1008723994467469
30 0.7173598973781726 -0.11998543588127827 0.39518813990418333 0.566627478176433 -0.7664283436113741 0.25561248708215534 -0.20357508099755725 0.7381842933825609 0.43318377707194655 0.9755172798797557 -1.3005941155046652 0.8469806192568096 -0.0377638797670818 -0.6142571381507737 0.45570434063897397 0.11799262308601556 -0.3840098420574864 0.6854394208482987 0.39900883010151705 -0.24145406666597122 0.35432528356019644 0.2433756135971768 0.24255321650191278 0.1574681169762074 0.6606511094539631 0.4380927812622025 -0.18311845134460125 -0.3077329844026064 0.9976969148952353 -0.1263598286776489 0.16547610707824065 0.208637977199674 -0.37815137774554364 -0.5770229322557926 -0.5149500466017933 0.33819727684245393 0.16524990677614004 0.7708100097675833 -0.47606711652858874 0.17334415487818758 0.2057350019782789 0.536580078989351 0.13918419280345207 -0.2315684146304709 -0.2895039411431422 0.4136656639903272 -0.1582282168050882 -0.7368729462210983 0.21379590094005568 0.22749457204574325 0.17802707572748158 -0.32284817180452957 0.698805051270281 0.9384374029754715 0.09111779105345938 -0.6804431923861801 -0.22230196309953995 -0.07435097322500188 -0.08902780757790944 0.818682546805424 0.13409153860386083 0.8210945526741311 0.1589167092989755 0.5478172633133348 -0.46738277383147014 -0.30816359292683365 0.013111142873693773 -0.4607426619399806 -0.740699683999369 0.3218131077205874 -0.10062952700707392 -0.06889455945627193 -0.7188791565906021 0.18803091771877115 1.0540171718320754 -0.01740779999193174 0.3283963563360422 -0.13832647247054758 -0.11201556890055722 0.1031425337811424 0.4572918357210203 -0.3208043066957954 0.994676335460873 0.6273192366181408 0.8104346384246287 0.7135976792194849 -0.12136865602553253 0.08973176793773335 -0.22018445304138737 -0.002192948840153287 0.4215394765555084 -1.2699529049386036 0.06454325357649185 -1.0964582846022646 -0.1058889315195029 -0.048183579548197755 0.15683622021217974 -0.18220446210722308 -0.3861376335579209 -0.4257794398134624
8 -0.3529774277754869 -0.42503268903113617 0.463519875822509 0.38421465037042907 -0.06169925257773585 0.03171322702586858 0.20244773448817813 -0.01577835336157373 -0.2697012682374863 0.8356948736767853 0.0399392887685332 6.0473166626701466e-05 0.46887977640677303 0.017664857501603053 -0.626771218738971 -0.5440047692414348 -0.11826967552786252 0.07803316167087503 -0.04569218144794433 0.028472935278457002 -0.8454414585608419 -0.10689218393106266 0.8064238075519704 0.7576894507194417 -0.7131109778886053 -0.46553452081351376 -0.22428084414577948 1.2330108130812802 -0.7669148018718558 0.08719539180452088 -0.023635254903964127 -0.4970471562234658 0.023828403072761954 -0.1585963312063389 0.04351381962332066 0.059964832991837545 -0.1300790138932827 0.014377497664702513 0.6177928366670428 1.1755532259922519 -0.2482975879964715 -0.3420360987122276 -0.058042188076551614 0.1962074471076849 -0.7920101280688597 0.1967011105672945 -0.18441730244687657 -0.2837787439203315 -0.5624759219367168 0.29951238606232516 -0.20264304984369885 1.2007720804887938 0.09540837686695812 -0.5083380492844823 0.4918548282620595 -0.11800161425589337 -0.14731210043987694 -0.9316858022800432 0.13657462836121975 0.3079446593083708 0.20285232085337584 -0.08839204354416239 0.23323388981662857 -0.05567699200766507 0.3273866779486614 -0.3822752489450709 -0.04978916169525417 0.20171442655492067 -0.46376707523436944 -0.3013609517761927 -0.23424663299420856 0.5999899201273176 -0.015217534895838995 -0.27542572166033913 0.4818526924813536 0.18436314258256617 -0.12681953032443094 1.024386917774926 -0.011689219869851346 -0.47958941866600147 0.308110641816137 -0.25376547411589745 0.4972170645294064 -0.3952250711538932 -0.623415594201778 -0.6514831908065178 -0.07673404454619716 -0.19583305285750396 -0.23156645208191462 0.030688754927397532 0.49368814366905595 0.563557865130932 0.056890502072356214 -0.48107222279624906 0.03207675116139765 0.3277958441595229 0.14298647114381519 -0.3997857643933272 -0.5202013575851424 -0.16558678896602533
7 -0.4694610509241481 -0.3013539822502245 -1.3021545496135283 0.3158467633518499 0.9097172380204401 0.2812598399296281 0.25242461091560486 0.6436457826885935 0.1736520771556884 0.5039503805067466 -0.027902836156696285 0.17788729582799961 -0.7719376519329659 -0.11249970037765274 -0.04306841108757411 0.09641123151845998 0.4185403431101093 -1.6032878108607047 -0.03193603184546572 -0.9360590573450173 0.299035888052807 -0.8301331975520844 0.06282331147897019 -0.7158142457504962 0.2148737429682948 0.0762092780504421 0.7146471549150979 0.45026268975852196 -0.2956809005791123 -0.5583802450168385 0.47294003031144904 -0.19363629492221235 0.27489991391581153 0.20529563262365244 1.4707731159173238 0.24531419891470138 0.6397905553934508 0.19782265602548874 -0.16266384020928643 0.7536443424115387 -0.6626716259234743 1.2370729820844601 -0.0174235925769553 -0.06256827049270525 0.8394725496527395 -0.25286897517792684 -0.13846487404450789 -0.3356649891117348 0.10111160340166028 0.6660200131133459 -0.159330577014131 0.23510375111030024 -0.1567738933082332 0.04142737908632716 0.7076817694563314 -0.07333621925453539 0.2720681802842735 -0.06560272247812109 0.42534463735228667 -0.9038768347697264 -0.3252291681930478 -0.21382257064904606 1.2243457288786617 0.4432857902952918 -0.740626931874848 0.0853734976798232 0.17025263313961658 0.4283756996979794 -0.07451117017667368 0.3181204191207813 -0.08045530281984943 -0.41528985019022874 -0.059721506863734175 0.06109682696270955 0.049331032993200075 -0.5973448737898732 1.1604351040547014 -0.2554346314169437 1.014451539026021 0.2616507170213026 -0.10176419408393209 0.5651136688956947 -0.1715633541113139 0.601832338001317 -0.33867262343273624 -0.19152672818636748 -0.33586896324764426 0.2640775028402011 -0.4386738242702598 0.2523429169056762 0.6241193537416192 0.310304062432897 0.5044144749725314 0.06747516735538538 -0.004709553443066042 -0.47941516078312746 0.427355240910445 0.48810280586381205 -0.4026961564475186 -0.03525400411406516
28 -0.3578569025159898 0.22765982486282696 -0.34898811172782307 0.5852751897269124 1.4637816437953204 0.20772295013787717 0.2786260454508777 0.6553976711169295 -0.6072521787793991 0.5863282272686705 0.19393521986885254 0.7446513026439447 0.5027895518132802 0.8782802233726776 0.5536831442998619 0.03271761975231756 0.170627469643519 -0.9756899754371396 0.4863277794271214 0.03127343600179565 0.9261352110638028 0.0711488478019038 -0.6064123631609666 0.3234872789469069 -0.3963519274004331 0.12567988055266188 0.07409066554200182 -0.6939473435477465 -0.8043813288178903 0.45663943213553354 0.016545469250132828 -0.23772419357928212 0.4921461458617674 -0.23298226536984395 -0.6411239823215025 0.1356956697067945 -0.3317561454349517 -0.6587753287304565 -0.32648943533537494 -0.14743063561970107 0.2877489333379401 0.30569021516339506 0.13867677268332354 -0.7370791606914289 -0.2794900527183984 0.4267882908010704 -0.4792914624203503 0.2906081791199303 -0.21567218850447076 -0.10022875230509838 0.04737407158244859 0.7005346788592526 0.13952028173614062 -0.47848791217228925 -0.4126376697103867 0.10394805659082122 -0.27966433181197986 0.5059907775877714 -0.3753463612811458 -0.06415524697600905 0.19104464496289614 0.2590041189775061 -0.4170302407969143 0.2140679539482122 0.29319707876140055 0.21402348948254024 0.3269532503470225 -0.6820557654304881 0.3446386442778701 0.3292359610344152 -0.3941155938571031 0.01705996611369943 -0.21110990298791257 -0.4091188195135295 0.6441960771078884 -0.804033747100497 -0.19191320335683162 0.6397949463400561 -0.7995614058897645 0.20702474521132136 0.03720002835992057 -0.5017459191125309 -0.3969120567773811 -0.18761564303332698 0.20132972984639588 -0.2525312841280446 -0.15937082731746893 -0.4583944619738113 0.20860040907712363 -0.20406058475804134 -0.22702017147997824 -0.8294119947367815 -0.5158627250649711 0.5246093114116597 0.37477779509195813 0.13006529551089227 0.4161397601590377 -0.8933954855653609 0.49440235246846603 -0.16563917879571174
31 0.37664974226898296 0.7571911901063901 0.01249606674059399 0.5039190752979938 -1.1292081997950056 0.29541281004814 0.1027951673249622 -0.38789695654272505 -0.16354884145411766 -0.4752661182227037 0.7916574503894044 -0.08427242773057793 -0.03127212733773614 -0.17008235613510303 -0.2368046636499314 -0.16517917090740605 -0.24968075202336265 -0.06288104741283115 -0.354668581885905 -0.05532667174956102 0.7809707000776468 -0.0457688223186405 0.42587478674259355 0.33390184745412554 -0.6206437756704007 -0.01915137197304954 -0.407455715317576 0.46875727296428704 -0.795822630495767 0.1793000801280305 0.17653982254018996 -0.19816356785538347 -0.6670327939965075 -0.6300860697052608 -0.09254152145407159 0.4156202567157573 -0.14693289564363665 -0.44612494698264205 0.3478061204837204 0.16990270949907613 -0.0366349720592055 0.04792514168120041 -0.043272733326546145 -0.17915926024935655 0.005699900353613028 -0.23942740994255676 -0.229267527993992 0.00892039255740083 -0.31681608955354285 0.3680228375447367 -0.18862092318278045 -0.2865049345710211 0.3853145631627921 0.18548397780625014 -0.20253608522150424 -0.06243153006086854 0.8360110259995639 0.03356093663260956 0.6415468957010407 -0.20308997895192593 -0.769826888086905 0.40801787412441176 -0.540725127822456 0.34326650664968966 -0.1001062820109198 0.4073091684981357 -0.409686666896099 -0.8641767492504565 -0.3371854912383327 -0.1303276546214316 0.20175023179058854 -0.12796713572897087 0.33890409343041883 -0.18693394942293817 -0.14673566518594913 -0.36817749764489255 0.26899956949762466 -1.510823938945758 -0.0783045737750456 -0.047884955566674686 -0.11396470412222771 -0.38155719617187417 -0.10057413411913448 0.09822784277466955 -0.10665482668074149 -0.06134425828403735 -0.009711467392195696 -0.007503654477749433 0.015541376546844444 -0.3186114551008886 0.46412052788333374 -0.19659247029058613 -0.8587355102122898 0.5492454825788384 0.04303143273990182 0.3164039708812739 0.05814826833753713 0.3830322145161714 0.05037994631247406 -0.29594994224923704
11 -0.13400905846636535 -0.25396433187115025 -0.01583519965939034 -0.3180937102639399 -0.047080909083878276 -0.11663619137774056 0.01791008491836202 -0.4869768887520116 0.2435208413156285 0.6791878602272953 0.1312741886145482 -0.46952330589928765 0.13694653864069553 0.4605497410316612 0.05601435049900248 -0.039283517966451985 -0.1733512633761568 0.37492512624713614 0.4030843066453333 -0.5105772531904603 -0.2730966006061503 -0.0605466292658416 -0.12529564549312205 -0.11915474498872272 -0.18598141936798582 -0.011071887987557835 0.4329509648519289 0.1913778221383631 -0.7827568711045627 0.22922341243252872 0.35310146494548866 0.14858396870212442 0.2546954224894966 -0.014678353796445259 -0.2894175790660001 -0.3155986387038725 0.03024934688959977 0.5166294886195135 0.6775760804519146 0.16381584104453584 0.3167747468744177 0.5494177716857821 -0.1416156737066236 0.5815714407838155 -0.007780732123406773 0.3780376141512686 -1.153141050465024 -0.08837210862914437 0.46679071830456215 -0.007284725191735709 -0.24912229331008473 -0.5448170092090676 -0.3152699337388437 -0.15552993308901097 -0.24561783543289678 -0.1656661459556225 0.19664248840417206 0.14624562344007588 0.44322611817267943 -0.3415935893189635 1.1999004512225688 0.20283063225009904 0.20546967783009726 -0.03090466289298538 0.05695736029043348 0.11138674043619923 0.4008640257033038 0.36169472224674304 -0.1597020698598366 0.1496096470635209 -0.3228321349777471 0.16714456420181883 0.11365839012324461 0.34456818732043565 -0.547296892309688 0.31690763513901965 -0.3351144010411462 -0.30265844730578273 0.39620600623456 0.2569857990613144 -0.16488193653549027 0.801764177015619 -0.05895746058325263 -0.10998635836108629 1.1760265126773384 -0.15198040167242785 -0.31777292877687285 0.26190296058155005 0.14622923092546866 -0.512970052624988 -0.7738447733297094 -0.30685807528541215 -0.3367690905205031 0.249819159349473 -0.16408078252061184 0.07342142768501325 0.14755784674729322 0.3329159382075846 -0.17753167781226253 0.32965873200403323
5 -0.7922693889384236 -0.11498144785448049 0.1761477904681562 0.3007133213157298 0.09304019692100196 -0.1523370561350805 -0.08211698080225782 -0.6795923248116297 -0.06787249320029354 0.6544487858653303 0.09345012563233039 0.18830845340120914 -0.16900566332626973 -0.39910715095773713 0.11428148475377033 0.509568890878357 -0.2554906915145272 -0.06777088691110757 -0.0013346734366122036 0.011662298843244904 0.20144196832416736 0.09361006341848813 0.08761984288984162 0.6029500430965145 -0.14552517442589033 -0.1662728164291597 0.21906510499780127 0.7613098912076696 0.18990363944435665 -0.2525203227444746 0.2784746699725123 -0.1446886250641952 -0.22178688215398257 0.7039562024384906 0.30179203499816054 -0.34320314129906604 0.0037724254182326337 -0.3538423799306072 -0.6270370399654879 -0.7191448922393859 -0.19881082293001207 -0.17407055818774986 -0.3405630977315332 -0.15720735020064908 -0.1288738963404336 -0.09090297425073092 -0.29619504756949483 -0.04295222764776717 0.2784074503147183 -0.25071218202231216 -0.14469930824877386 0.1681998045884067 0.29628167350346235 -0.18402682781079677 -0.17953703657722928 -0.4966680976483135 1.0085383749579573 0.42170118099043585 -0.3303787168618413 -0.9602056350957714 0.7671144752253394 -0.4143112139275366 -0.3545294539624051 -0.1868957564650994 -0.08561241062068393 0.39178098996676103 -0.14202639604153522 0.37160542141663044 0.03949252359510738 -0.18840109039304423 -0.12624329279104088 0.11394238388854645 0.31435331770106173 -0.09148674528946645 -0.1843655596859194 -0.1147040558139131 0.21193801153735745 -0.2612020708762504 -0.055035792477588184 0.3120742779245739 0.11782985450965819 -0.23791053377417076 -0.09039569420162309 -0.23413005333111692 0.6812014158699933 0.41094429066479765 0.5032833449952028 0.4422761314516285 0.15848513203542425 0.4305733306322091 0.07077840289164244 0.07452214236857951 0.8820889738681019 -0.3778373946483544 -0.16230864142248644 -0.33516215802364546 -0.19700427011784466 -0.2364586305794107 -0.4011807565436019 -0.1274329768110583
26 -0.2195067581917647 -0.8641314833680939 0.05874691869413257 -0.054083643858779375 0.06312588882505316 0.41319429234893457 -0.5041150552089178 -0.2689896642435688 0.5985964941927823 -0.48472075150966254 -0.12648821696649742 -0.1929137938278083 0.3971568100845877 0.3844404405000017 0.27970243152717417 -0.3967432107777166 0.31220974576381594 0.28474571216581657 -0.13320559986829122 0.13992195129301452 -0.09963687975061881 0.2953396378439276 0.036989201591924134 -0.12708202672342972 0.15836414488090703 0.025518928453691487 -0.25851055255907485 -0.18809825750170936 0.08832088726514788 -0.16778275299379478 -0.05255033650020769 -0.006620954088216119 -0.08551258997324364 0.07760512392362935 0.4649403980885028 -0.04980233536820206 -0.3393281551914511 -0.5689226388645695 0.0920549616674896 0.02477368974628574 -0.11760827527695958 0.5934585192787941 0.26946489100554305 0.4993188817876532 -0.2395787268707548 -0.13263676763269291 -0.3149960375850101 -0.13989894404024625 0.12979445801704628 -0.501356195151814 -0.05528032607179827 -0.03427308473346175 -0.24376034991634687 0.5250053273178326 0.326235166476496 0.5393241255850263 0.4555125780750762 0.06073293525835949 -0.42496112224692867 0.44665668701647926 -0.15128003236993262 0.11841274771513768 -0.06449768462546991 0.02428001441648317 0.40396891179866407 -0.16638066170092594 1.0832078765420503 0.022556306659345594 0.018847544312673412 -0.2049371125470203 0.11248628757261228 0.37217928342478346 0.309447917824516 -0.39965497050768306 -0.3827579671500165 -1.2605492020739995 -0.10529662013023498 -0.13702817139032972 0.12497011576628786 -0.28154556256008384 0.041213130774554976 -0.10532982212754884 -0.16207566557327008 0.46108739384823755 -0.2127509057702699 0.06929158095785831 -0.0011768321913659318 -0.39844753211714906 -0.24007799736564303 -0.10440111792582334 -0.28275329560333495 -0.19721557037979812 0.5375695908590421 -0.4622721493821612 -0.30767920001514326 0.05142143909735016 0.1344133508514647 -0.297339461047583 0.812468463719458 -0.31637496241029567
25 -0.17219861701795672 -0.24082263910947174 0.25375636224303016 -0.4413658220285137 -0.16405611902831752 -0.06439288896006717 -0.27640002851077955 0.5877838033621731 -0.3830610153871877 -0.5738303395717973 0.4796269260402487 -0.2674981761861446 0.2759322702533314 0.6000519809993211 0.42889451595704237 0.1465110101092369 0.37689671994028584 0.6349756441417773 0.03522353972632969 0.3256096214167017 0.04740837849493982 0.4088140113972435 0.31179264844953386 -0.1824729984101079 0.23866975041446215 0.30160588875124394 0.018995855286174052 0.3939503110207059 -1.2140771234159156 -0.040118144073203243 -0.20136631697133975 0.22135166125277464 -0.312083151764579 0.40917589162764606 -0.3457966209553226 -0.04291118481871849 -0.3981044361526891 0.18219020271161362 -0.8666844397313881 0.033535408607748375 -0.41530224061240023 0.3033702963684368 0.14841991314170552 -0.546206353649522 0.1638131232953384 -0.08510308143184103 -0.35351701640653277 0.33938304318083434 0.13382281969060367 -0.24498484995190986 0.016425762714614142 0.07206882844876919 0.20250679167539143 0.0642858240066448 0.03531081467247554 -0.3017547618969224 0.5032889359424094 0.2521580232227748 -0.2191876453813089 0.7212695176053863 -0.4224756373976016 -0.12338945278021643 0.8878537926561272 -0.18035009299772242 0.4385798532253661 -0.20023966826489467 0.09361770709001936 -0.7879656212520169 0.07373442707991751 0.04229351696272516 -0.09322815299808565 -0.24586659257093801 -0.06476970677473601 0.39344469383583547 -0.15498410562059975 -0.1972912903308041 0.4013655748608973 1.0770869094325006 0.23521558884046767 0.13184620873766364 -0.047065221819596235 -0.03203564347865615 -0.5053387232094485 0.20673811489739205 0.14313003525281837 0.3903890098950184 0.16905899638401667 -0.32345600140480024 -0.08796514165902411 0.08729774227387456 -0.25581375444025023 0.10850266154882147 0.09604941766402289 -0.05264641540316948 0.19114572685260814 -0.1680115745429328 -0.6926725787027804 0.6444247795102586 0.027154333101228625 0.31828742795274884
29 0.23327350416418913 0.4494059125523574 0.09771157399906197 0.5118979174033873 0.8076151793437814 0.10014762118359362 0.11615260503599974 -0.1351965728780509 -0.22980684976287113 -0.2896983849809352 0.19819818523568455 -0.4532928403176359 0.415536869358861 0.03529748954974863 -0.13315049855756295 -0.3825694169745041 -0.3903222309929996 0.7416740843822899 -0.2312219815989831 0.14316840582865842 0.08991044238271195 -0.2265873802792201 0.2440578053189901 -0.8299103809198352 -0.22745937595869256 -0.24088340174548295 -0.16640412955417536 0.22192730410242859 0.583980871182475 -0.022037223404687934 -0.515259009152018 -0.029289637726665638 0.25246784692616914 0.18648664683250996 0.04794055206580706 -0.004725340076175738 -0.16006996527924824 1.2133041176586652 0.053137378121452424 -0.16840757282245833 -0.3206672470640666 0.15167751924307576 -0.08814831650619753 -0.8103398326093147 0.03074563669992801 -0.32983192838836206 0.4137205622017144 0.3566463851199504 0.42065787918631786 0.0899165471631447 -0.23501062341194923 -0.26711884395309055 0.12553487901250654 0.2888827136687414 0.06875781183899349 -0.04555562802544901 0.15361234133606752 0.12190006682885657 -0.4562708307747432 -0.14246767050054454 0.4866481233997999 -0.19266075336526867 -0.19968434843735192 -0.32735037011072515 0.05090456767914514 -0.08132980277676637 0.3490406876099511 -0.0960946820665242 -0.31749272053505867 -0.03828007456463957 -0.2534854092154556 0.07085772522375809 0.10899819078265495 -0.11316094126066069 -0.05714968766637261 -0.5164381274421761 -0.12300623658570091 -0.11482248902348613 0.49489715268126266 -0.4404622017295605 -0.11420955188510412 -0.030516094341521933 -0.40732181643937826 -0.3947904533272134 -0.35186403196408084 -0.13499929449115633 -0.14903426904934422 -0.042063241244487674 0.39566675734251544 0.10269241524231161 -0.005653842118990545 -0.17056038506344168 -0.406231843983731 -0.2033819402806921 0.31658770486448257 0.06956307604110114 0.42615976019225627 -0.4675136166783871 -0.34748458952946565 -0.17807308822614926
20 0.2193647789291534 0.36515885222693184 0.2769144751601866 0.513868660704834 -0.1861486485019881 -0.26991312752849367 0.08355191213198955 -0.12073250153680763 -0.002288362955624874 0.11219977136503906 0.29703243530812495 -0.5401840825301577 -0.506386251970939 0.5003902263359602 -0.19946042439439005 0.3741339576264785 0.16531592871475181 -0.16672986410114776 0.031864683121321034 0.049007334523307744 0.1149526919891826 -0.265723570551013 0.2915146149508785 -0.1387486592063357 0.2975834672672571 0.12139013440771558 -0.21223223240329248 -0.10981850724181694 0.06137080806468756 0.12539330954854883 0.493520029480485 0.10361773199172716 0.14130531410174757 0.5129175499082326 -0.057487472408673974 0.021423377048616712 -0.26142836892956867 -0.04091325583298253 -0.056645239626023455 0.19133455064719124 0.01689882014483209 -0.2575657977944431 0.10366263200123313 0.4401926168366109 -0.17306842954703214 -0.4558866709121958 0.2140394976601087 -0.19850675553573538 0.0879241791377268 0.031862513668833595 -0.006947107463269539 -0.019374132618089554 0.16624525758363773 0.1610033539420113 -0.6872640471924593 -0.20043875970975572 -0.09451594311898881 0.3546962346464978 0.4238961211566588 0.2236163986169737 -0.20000567106214825 -0.00012262056126350978 -0.30903764632778735 -0.18061022641219734 0.06645784079810893 0.11633789927781292 -0.491078231154599 0.4758141464170678 -0.005703033476546235 0.27687237206265886 0.125993934511641 0.4872746873939935 -0.06005587506264105 0.6114280706661342 0.5084549038408255 0.25400677953595485 0.07548152340449442 -0.11290774110662917 0.10387295078533308 -0.025570801649108223 -0.09510911353325285 -0.2509332475287016 -0.16365833187049822 0.34289507928629254 -0.3724259514617416 -0.20688922005478413 -0.05851039928445358 -0.4290569328577475 0.22107337587851084 -0.36349510635485216 -0.4217363285821963 0.02364747285987074 1.0240278906887965 0.23685073847997093 0.006128745227003428 0.18175201586962758 0.22658811634085596 -0.3582746358303742 0.07647631370082922 0.14541135190660232
17 0.2971002780910087 -0.10775432310136945 -0.023489577686566687 -0.4118575417462491 0.28899069423312124 0.6862614474281925 -0.13627088633608728 -0.4867110672879184 0.382562411409808 0.3624816639144101 -0.218203204837894 -0.1758422629112116 -0.4101281398222367 -0.01839970030830933 0.04548848371590549 0.06241083948248663 0.2946621813298029 -0.015202157710710004 -0.2132224726009341 0.31356803846642506 -0.11518396677821013 -0.08977959203203961 0.17297078943559602 0.16062711094915288 -0.16453713477151097 0.1541742202144394 0.060745077733972946 -0.2227905533478463 -0.03765209134603608 -0.1382214694329507 0.09689163341804091 0.03690820884877785 -0.25467303477336556 -0.3343088677579291 0.0876928918583938 0.10254481933663555 0.22131702961409494 -0.25778343364975864 -0.05567483893549391 -0.061998702984197795 -0.4506700920187067 0.029907233503486414 -0.1331613113001882 -0.3578349557443028 0.0701726062706221 0.2341711411251103 -0.020691331663401626 -0.016047251385929214 0.23422841625700633 0.027082318426201825 0.17385480201594933 0.022181821328527383 0.4363103833152004 -0.12306157486036419 -0.11967445848564157 -0.09093092047788043 0.15391677614993204 0.23414680037420532 -0.12925708407316133 -0.4702346496903019 0.20497190121361542 0.28399182563256425 -0.3322703596361869 -0.22358491495308833 0.1639716254207014 0.30327792765375616 0.6465585088975914 0.2378506194133278 0.0606013103797516 0.1505598768435684 0.26499428455452606 -0.13346552043019866 0.013489132184633167 0.21570793132790006 -0.39380803250580293 0.42501607954836107 0.4984954366323068 0.3336425889920723 0.38226042623858 -0.14645206720548232 0.032374241215618556 0.190139866236925 0.03414349824998198 0.05418868388485088 -0.5682399148080578 -0.16045333099609702 -0.18303708781996209 0.239534359862585 -0.28271841691008176 -0.17451186340637692 -0.3237295764561119 -0.07842848677507278 -0.12781033933985644 0.023809791204139927 0.1550906867845688 -0.06145488722511404 0.07907037808322652 0.08690059639782258 -0.09604779802851182 -0.15653892549984796
19 -0.3119333990269499 0.15994445034705554 0.04211468796997726 -0.5415588938829647 -0.12745440663458688 0.10596706081903899 0.04781766867823945 -0.32994969525838347 -0.08484521904708733 0.07876847962152952 -0.09364261452426527 0.018868775175388625 0.08644133100340996 0.33044810463603713 0.05520653002147461 -0.030691248201052616 0.19567512100828027 -0.13133667425786527 0.4534643374320265 0.06018838947962154 -0.0008102589636843167 -0.023150892381189565 0.12002151388050504 0.05003006690526319 -0.09216095668056226 -0.33942417592058677 -0.20192798577830665 -0.2472292766647744 0.05184093599729376 0.050609215030766735 0.10123952541689847 -0.07384660507303524 -0.14826831423502596 0.4891891070142708 0.09609655417026794 0.07723667456218092 0.12840706042221375 0.032687619299117454 0.15137613246673773 -0.2508382884165204 -0.03224415613747284 0.5380964428987247 0.21519035438770778 -0.4070046591311734 0.05874745998442461 0.2558399078061425 0.14327304777882513 0.030395838682794222 0.04036460774794388 -0.2526154876891052 0.023340125130419716 -0.04144310176887862 0.07004201967096609 0.18558590537855357 0.23873744041851364 0.08316884406383912 -0.09145798627793854 0.17564837393856408 0.23099267744874305 0.40971304758190036 -0.43207864624793146 0.041105956286608424 -0.0954204168036155 -0.09077276582265696 0.02543932273753229 0.22920265887577235 -0.5600107055518267 0.27546143481642654 -0.14924892787760638 -0.19672725044508285 0.08481406093394672 0.1386224168678214 0.2574822514100646 0.0868589782047436 -0.04035040127726025 0.25216177780462623 -0.013269495301928984 -0.06829879874280789 -0.2686642005720395 0.009566706967910437 0.1570163553355581 0.17723557650823454 -0.02748604176214242 0.05339519942044215 -0.056877993774256064 -0.08664827667471013 0.10223526211698307 -0.02399918100854814 -0.027128328410207993 0.08723654722436437 -0.02753831717569032 -0.024429263161168318 -0.28916691104263026 -0.11450189199669954 0.07771638011038119 -0.29007169837886165 0.2685761850050494 0.007893567603840069 -0.15491025931956387 -0.09486453989960769
23 -0.006021230808139124 0.14580829169043935 -0.05132046028403092 -0.2827010275544569 -0.15469367821962482 -0.09494218369576389 -0.13068131187525517 -0.04671843729760289 -0.3463297618060735 0.004107906910188936 0.0037907381868367124 -0.014115126063007414 -0.2914118171039391 0.2504823563105953 0.3097001144496975 -0.1900538712310266 0.02107152720611696 0.11659719151513917 0.12052508694288847 0.12734788532308258 0.07595589885439075 0.07668292750912373 0.3419943591267081 0.08655106457992967 -0.025142258668215716 -0.20849500859545833 -0.2920148822540141 -0.5475190575290518 0.21239030891948685 0.21534357731908943 0.04762677534929978 -0.14040851121084025 -0.12485862256445965 0.11982615717016389 0.027321101978225258 0.06444982450117354 0.10919801651939248 0.14268024331213472 -0.18036828033809957 -0.15516861317404823 -0.018706127227365383 0.3271207368729714 -0.30894168570707925 0.12626582208291048 -0.07870744218082436 -0.1525926599915833 -0.15793756734043388 0.06426618750071503 -0.12043952423039164 -0.2281416370987525 0.2740475347493485 0.05173713996409829 -0.06139336985643862 0.1383222920303984 0.2784221736150276 -0.12262846431654165 -0.1989487130713488 -0.20845522743513065 0.21214591910960834 -0.04619787781656873 0.1654729892424394 0.026759662549645895 -0.3118897821719231 0.15241367927127691 -0.05205316453908181 0.13104232650650183 -0.5943900152648102 0.14324282981948927 -0.05198244990372059 -0.06941621412099254 0.15721777431408662 0.058579208878402005 0.09475944981296701 0.027391048526027285 0.029811070168212585 0.15370168476663948 0.019269855908009555 0.21735303809991274 0.3424456059074067 0.1165060962186717 -0.1073690513037249 -0.0683418514700608 -0.10489198942575541 -0.25924615056214395 -0.17643207291591143 -0.039532732364286616 0.17965996121843386 0.19476909701293693 0.004105941683184018 -0.2497102907289613 0.14744620860355237 0.18844712114253778 -0.29367509539098274 -0.01603519735620034 -0.0676170714473479 -0.18450241009443158 0.10232699005502166 -0.003432329217663235 0.20743608433264984 -0.16055371662237947
27 0.026785130111576985 0.08443772155230997 0.235458601557859 0.20158629507489031 0.28495180972921186 0.07809022275429578 -0.4552658163812925 -0.08012461826450773 -0.20518847196924353 -0.2321506275396817 -0.131435846812689 -0.38868641189579867 -0.18181765785029547 0.07889533006984817 0.12548029266679803 -0.01339950169369314 -0.14153751277214863 -0.12967668092048626 0.07204953690051352 0.02510557419404391 0.14479120996877037 0.021494958052440123 -0.23812738355029853 0.45213573699910303 0.18328895355842134 0.24695458398628653 -0.17193620832816978 -0.14642716079482182 -0.2817411469467671 -0.13583885465281756 -0.006261104767210273 -0.15352651142910145 0.41171388856686386 -0.34912703125569766 0.15675473575817356 0.3604139410456981 -0.21717111111438528 0.3341898667819951 0.24111232956096196 -0.3846395659102584 -0.39149744644736234 0.05365071542627936 -0.335822775632598 -0.1884972929741191 -0.07250855883066096 -0.13290342611587969 -0.006826421489292414 0.0027601143409214874 0.09138172867911493 -0.09061294907347657 0.04594019930322976 0.3210209289377987 -0.17938427641506494 0.08305462261371374 0.060082086779734166 0.2758769575630801 -0.2748795879834525 -0.06421000202178728 0.05833901434381262 0.739736715328802 0.25665010620085216 -0.09431727153743903 -0.11087092425965586 -0.21951009480730888 -0.15601507644911866 -0.11012668549118954 -0.09298395045288543 0.17356927140945433 -0.22030955203239053 -0.03554861330252769 -0.12196693335095155 -0.06323297790236931 0.04247571102488595 0.16658774526623435 -0.29247324879989056 0.2673516890309095 0.29793395766323666 -0.3633319056132206 -0.3089030465603242 -0.1881179627708285 -0.10248199559290387 0.09131923502107418 0.558110861190185 0.23514413881272334 0.040337453811850645 0.09411191608695973 0.019954597245512896 0.2646440419594253 0.05961656952008953 0.22139122858393556 -0.008812872259790905 -0.2904328816852316 0.4258858429681809 -0.08558655181900436 0.08309232986049743 -0.14528266412859642 0.029891930514618498 0.26540622457646085 0.3604694767638873 -0.10463961715964519
16 0.11728632267816747 -0.061799007791562735 0.09565345091982883 -0.37289480738513753 0.12273250001084278 0.12376982983202871 0.15439118293334836 -0.13296751304829116 -0.19515243011069375 0.40657891647593114 -0.12392196167566588 -0.14897137127459864 -0.21629700356635503 -0.1751097304255069 0.0826969660976451 0.09038849303867755 -0.3165564034025713 0.08213293813123584 0.10442284651174046 0.020133737246434257 -0.3504437540487268 0.09802885560986874 -0.13141327991246915 0.06812213286828196 0.21753891737078299 0.12121255129890235 -0.15110199650933065 0.024272701866641808 0.0689287209780195 -0.11551252547832119 0.11157441053511466 -0.15097877798370016 -0.2491624394830064 -0.24055450859715902 0.1708497497702932 -0.20156922761704485 0.23588525722979675 -0.31185489449952475 -0.024289842388736122 -0.16611675985389876 -0.2428724837415508 0.18695209565236137 -0.1474040865399998 -0.1425973218716342 0.022496055692444818 -0.24925456586081488 0.06890716762969633 0.29423193317477353 -0.2825259847178055 0.09701524748579349 0.05637870053792927 0.010891915428462639 -0.22819450208442227 0.18241791086987197 0.000565568122438897 -0.005240613504133449 -0.19127270564875162 0.27588719123686384 0.41712927848389103 0.6963362561072349 -0.11847306807920446 -0.2503761159845707 -0.5097409983640352 0.034164448742920815 -0.04669081419167204 0.00035758923395713606 -0.4965063174377595 0.18973076259735822 -0.03250801648753045 -0.11897567515053066 -0.173394750954599 0.052742016655323 0.15638869130455627 -0.1932095707634384 -0.04496758927477025 -0.23166180739307562 0.04729803677948721 0.07669840752280521 0.44953085748286853 0.25598321757008624 -0.16145031965203016 -0.06245949685010253 0.005360813160509444 -0.21118698650291656 0.22419519276761357 -0.1791556016440635 0.21469868526869182 -0.04961910457554319 0.4268948180164387 0.15135411790590172 -0.14513353888251007 -0.16739782550858104 -0.5491247562808051 0.026785865098985485 -0.11074860486677103 -0.08852465018025074 0.10951398657633456 -0.10080488881392409 -0.20438457362282178 -0.036444146317354445
13 0.036668822968277705 -0.31667183874611143 0.20732834644922402 0.02598122440019872 0.0061428356419752075 -0.3762526813386038 -0.24336824377609761 -0.1691186444889416 -0.1463846026234385 -0.014492838552322834 0.14207811001233908 -0.38203127311595364 -0.15719136505863615 0.046922383902940956 0.025778015209917505 -0.14220317355337858 0.29344251255414394 0.1741396186468005 -0.06087398020557656 0.2937774824596206 0.3587007197021351 -0.13955112914538068 -0.1533037379695698 0.4852837126182901 -0.1534003986191705 -0.22383558233627876 -0.11271988153959285 -0.2354776838565569 0.2446091997596112 -0.41046105631414165 -0.3115560006419107 0.01634501946888862 0.20174493295117515 0.16361399127638082 -0.057070356680762005 0.25009675931695785 0.05242806530988982 -0.003319105933367346 0.2061287236723747 -0.09238901867837138 -0.18353803841560923 -0.06037370215075855 0.027120955201005856 -0.17559212857466416 0.13035687022389145 -0.17076927240934572 0.14305967919767837 -0.002267054793979749 -0.26262541342037926 -0.1169126706655807 -0.08595076133816076 0.41358908228253416 -0.11514349043428115 0.006778150166392712 0.338415154411932 -0.2962633740448452 -0.40416980141092756 -0.33707537147884065 -0.10126813310098876 -0.09819603794046744 0.13287193500090866 0.09788029408335999 0.031026437148752917 -0.06567177283940533 -0.1879159302892485 0.1708374164431092 -0.062260968213913526 0.15336681993519172 0.0796109503950993 -0.09985974722793083 0.22986444222149663 0.08902135913124629 0.1959725527972782 0.3299268029656988 0.0429333921683171 0.004141757073319558 -0.1515415234427132 0.0613631619730925 0.3638427513596219 0.18896865525285475 -0.18924165865699097 0.11203249018799605 0.06753522871914042 0.09542247476027152 0.1281510277674428 -0.144920102298734 -0.11396591222940008 0.09620483784359207 0.0070266874229611715 -0.36865818159833097 0.05163758972561218 -0.3232900873431308 -0.08216456883372805 0.23300652135985822 -0.3757161565319819 0.18681850674476988 0.032663006132774994 0.13112949999156567 0.25168126314244327 0.3114056825439007
15 -0.4837522302090385 -0.10440759221300427 0.07185029314312956 -0.010507819439964155 0.08643783556982784 0.24471521222422857 -0.07319655062176084 -0.10154198508732658 -0.2302560987952955 -0.07697065406023258 -0.06003736228518939 -0.27351498799000895 -0.3153543160581879 -0.11100551638830088 -0.2133554313401817 -0.14698517104208775 0.2403780672841829 0.07203863429475721 0.07972576832224729 0.11806456791585926 -0.05229909720186554 0.05899601238212722 -0.23230063193101771 -0.08179114413615539 0.09881654839491556 0.2952955175151916 0.22770297530239542 0.07186726828482545 0.29138730644409505 0.13692950721953148 0.08228310813387221 0.3272270525601728 -0.2582378439774294 -0.23277968338351165 0.2079180536107693 -0.06865978029573562 0.15064327419441623 0.043522183017319166 0.008477640106197826 -0.18005796204213692 0.1454596142879742 -0.16129521809758504 -0.11253190999510332 -0.1538779097736019 -0.054515592903164455 0.12493413420836114 -0.14842314401343878 0.09241415092252117 -0.03151687262648032 -0.08512937813726656 0.046256289569787876 0.16515997646329844 -0.051894191777558336 0.06978483417592594 0.22082361721360555 0.03438858158507966 0.17346507014165294 -0.29161499326927753 0.25416251433933607 0.3030973369668055 0.027674131274404955 0.3642336688282053 -0.30696652163740357 -0.28384545299725833 0.13172113527871931 -0.4360893343841441 -0.5018177007268207 0.1772559888730519 0.035627574641382914 -0.09968093048719134 -0.039302346756577525 0.2220790638867588 0.15096032219110278 0.17063587727966342 0.3230500560831766 0.04473799885098638 -0.033621817830681036 -0.17841072548173945 0.13235371452646252 0.12312186870342755 -0.0845738465968458 0.02733310921455799 -0.400800027779513 -0.010911621730409281 -0.07116342460853621 -0.09386039221337182 -0.027673188162614836 0.07695914338453236 0.2260259663305555 -0.1136112835864144 -0.1167339825796204 -0.01908945546074234 -0.2864775453048758 0.286550737369196 0.4132158511052701 -0.602850445379487 0.2999922965607475 0.11138478635546752 -0.03188215707960722 -0.31510863051541493
18 -0.573247546775094 -0.2399600689540809 -0.15958190776095893 -0.39887417065837494 -0.044693439272428546 -0.18184334200616642 0.37940749655675354 -0.15251708428897687 0.34699914426546136 -0.004111538509325983 -0.09624072150646219 -0.22768496595379226 -0.18358158619612994 0.047767211501944934 -0.27077268756405587 -0.15532949933907336 0.05276138753183912 0.004191512963153495 -0.28690315436160896 0.3770507791386841 0.12900449368371672 0.06005886917591888 -0.3208272302932267 0.05341809019509906 -0.05752959033140665 0.18512063565086156 0.0015694922657871124 0.3901354546877928 -0.07360161463318912 0.1962969778034425 -0.06111714319183367 -0.3783321432132785 -0.037046899369707356 0.14289087397383207 0.188608813287401 0.1574201204938861 -0.24402829264187537 0.10817260377327802 -0.13578195649947677 -0.4564315305189916 -0.0711820284146916 -0.1811060862619144 0.11308366101641923 -0.1915492549847438 -0.08279272488216723 -0.13065696023164217 -0.03900633039200131 0.11013385151909538 -0.0115771140249983 -0.17655211433056966 0.029381820770244257 -0.6098176147263928 0.06283070025348371 0.062498498928316486 -0.09951597866402222 -0.15596714491626684 0.08313928661305205 -0.47180256907755 0.32785370913499423 -0.07938579771258014 -0.05942869683420488 0.09161193580505726 -0.013476746487819108 -0.0009982767717488128 -0.2676458491331413 -0.15457838198097512 -0.30828219462990786 0.17756865253567852 -0.1227153386641876 -0.06114607958217625 0.171855136699268 0.08962605473578872 0.1304552980937927 0.4467219347954472 0.17005914678670003 0.22880528610735676 0.25027815979040463 0.4140317598739015 -0.02698503753729858 -0.0001383905856449266 0.01648840498396426 -0.10952939956675883 0.031814926367922075 -0.0033179443937591977 -0.06932117706369058 -0.4336477262169585 -0.06656219037387297 -0.3536085342134139 -0.3090109131526973 -0.12909831169723202 -0.13152144267746224 -0.2008290790850695 -0.35463244570507113 0.07175974008256929 -0.16065715129615252 0.22270705549256561 -0.29252867342341 -0.4076329348242664 0.3410665933453286 -0.11346691892866445
22 -0.05726997998646439 -0.14278788968143075 -0.04303956694049863 -0.22543618477079946 -0.22188408751605762 -0.5018254404038355 -0.18827748697527716 -0.11448322614337203 0.2545468659013197 0.24205592762495515 -0.03208269418172615 -0.30201549470996875 -0.19076622405177912 0.3195395861358002 -0.19517071315498638 0.005681581084927475 -0.014978464769795797 0.023482945892883637 -0.03894978112393738 0.22311353878267765 0.14259038375061017 0.14516332465225845 -0.36183325523930043 0.04305192464409981 -0.09973577382569851 -0.03774609213747047 -0.013971939686782881 -0.0011515964339598203 0.049286148717950645 0.11791691947990901 -0.0370353584874738 -0.021981967073241016 -0.142998930206049 0.051191094368697974 0.15691235311414334 -0.045771360513210436 -0.22973421837100652 0.4118297783516366 0.4626743639823981 -0.33642843328738437 -0.12869002227140064 0.14434191503863586 -0.1515110862380251 -0.02158989381010943 -0.05598550881486481 0.049398030266722834 -0.09028683548645569 -0.038444834207155165 -0.24134205729598396 0.016602640323325805 0.1336119271882839 0.028410175929628242 0.041782993105701605 -0.14113247911513352 0.038476326259252236 -0.1218082821631556 0.0031713672542414387 0.24707526870954985 0.22715294013321885 -0.03679254863090317 -0.42515598761527995 -0.021906284610233504 -0.31356712728507663 -0.07523243958491194 0.08807289997380516 0.4721506334412258 -0.306497500390076 -0.11504571921129192 0.005542259971796395 -0.07564586168934362 -0.009353301149965144 0.02694599982558791 0.036692491252950835 0.312075434816566 0.1306636858428092 -0.15792659076666654 0.09689540746566462 0.4152112220893341 0.3509368574098011 -0.18981343261448377 -0.009010572567822417 -0.10128348048318271 0.2230232491267603 -0.2737750396538448 -0.17553198520527394 -0.04807454831046489 0.1798853054615204 0.18242615855504954 0.04172325242884144 0.39307877917484524 -0.06966192905362231 -0.10414476651394042 0.20730920118473345 0.11793933942740234 -0.09557292985916271 0.3636878987002478 -0.18044598352457228 -0.20891423365380987 0.042146079948772786 -0.0785528732995878
10 -0.13749423789763643 0.4253370579708424 0.025227770040102432 0.21002398798490968 -0.10079436710463789 0.1316181568679597 0.22174794014789223 -0.08751964368865767 0.13489466764734465 -0.0025333847943962476 -0.13119929706738992 -0.26360685099861075 -0.24722087378241284 0.048365778337389656 0.1329859062977772 -0.1131258659405125 0.2958633852403091 0.08631343076697987 0.017408760233310606 0.12693238562484652 0.05587807896484168 0.10237356278953233 0.04375766085698978 0.03441426192290555 -0.014288895853807573 0.2720787574774757 0.09522516068065998 -0.5890716905523711 -0.22219378903041104 -0.2462982678285501 -0.13913776266801842 0.07831173861198709 0.33403300455713925 -0.001071044099291412 0.19205766994314502 0.014960879935414045 0.020239724737121125 -0.3447696372042862 0.23053361907811518 -0.3102214447175419 -0.06956555121994068 0.015116565816107937 -0.02634752601357491 0.05480771933924148 -0.19870250540939305 0.21056702506402966 -0.2582298038329057 0.05256680178960816 0.364583945062616 -0.10277355444028184 0.06443046044859246 -0.34268695143720723 0.07624496220157928 -0.020193100286515275 0.3206270349768969 -0.18630444764030502 0.16953695256980625 -0.20487505683660182 -0.09231842426648505 0.05199185793523039 -0.014238391589067647 0.017084619026686183 -0.022433948510905216 -0.10123503277231322 0.12400552673954937 -0.015022171840574647 -0.027193755872875404 0.19844355186784568 -0.07270916309294327 -0.12132090198633666 0.03662838006240619 -0.08459562513380466 0.21056977196002122 -0.1375728688773101 -0.01996034967481349 0.38386217058809785 0.22708469479499546 0.3198405009632139 0.030178097465744173 -0.20697900489915183 -0.2154995913533382 -0.24610198055386642 0.1936583483286593 0.2430431466745042 -0.1607226627456933 -0.08530749060197206 0.1736994900482938 -0.05723061649263363 0.5587069498496172 0.25953358270997917 0.07453679402331902 0.08309600302573646 -0.19927031511661214 -0.13418036463680527 0.04695104545731824 -0.08195689435204144 0.6592590746267836 -0.2802084522332501 0.03467079097917119 -0.04719941220947025
21 0.004098769624369641 0.031172082628090243 0.050570519644424834 -0.11520822890180263 -0.019947156055214302 0.2734383262451488 -0.20396532218547384 -0.10042363595945797 -0.16633088108143013 0.04399772091491127 0.22385426551550897 -0.07503499871350162 -0.08173621395061845 0.10290472754739381 -0.1387380731192984 0.04888124127178628 0.2682183736592924 0.015461349003516771 0.15520227323778085 0.046657926046557004 0.05672603487099148 0.05238387240130992 -0.024016180625129748 -0.029430878082943108 0.2511612734100677 0.015234642821810066 0.2323667562418738 -0.0994568717422268 0.5355626610086642 0.05478100417774015 0.16912073933873198 0.28524212531226717 -0.10563823686042254 -0.2819352131839394 0.19606535775568484 -0.15066384923155424 0.04675319510716961 0.044594684603627754 0.08927560981361371 -0.024141602493938857 0.07772352804506008 -0.16434491858434205 -0.12760036611054085 -0.14728455059346932 -0.12917221214500468 -0.046649164157171484 -0.17639607757461906 0.1866636735453088 0.1309342364916066 -0.319404847807345 -0.08888969121822195 0.09166574438132864 -0.16285425775387702 0.03758898925161211 0.19824757717702177 -0.19468852713799958 0.08407280368170152 -0.3968893082571989 0.3359346983799268 0.38166608222805953 -0.07547911708875975 0.16091469358721758 -0.16965062323079244 -0.13740126064140537 -0.00315980402560188 0.012294646702440149 -0.4393062906913028 0.09053884261660147 -0.17230060047120402 -0.14353022320748746 -0.19650959431001808 0.20357355375121744 0.14720644638092156 0.1581101172949963 0.22956925790924892 0.045446340587344675 0.06795467874268389 -0.0627438645884955 -0.08650951629886404 0.030106579705148236 0.0020117598980419087 0.10078862160064789 -0.3336993526227328 0.18453002728529783 0.07259264940321805 0.03641665571754211 -0.30451514857987905 -0.003261706589516863 0.22954971931402707 0.28089673752081823 -0.03630625719587783 0.06156009866817921 -0.1504015253634119 0.18603735837943136 0.4110384730283298 -0.030958263398987097 0.1377625066306668 -0.07349217320044188 0.14875615474943168 -0.16579248101868774
12 -0.3106830664831327 -0.29425107081858454 0.04551174424963373 -0.2782606185951597 -0.024181461806355567 -0.617636885172109 -0.024533678344830872 -0.3562576786609105 -0.01491481511073203 -0.021480995211008512 -0.0596638240803367 -0.2244337827971725 -0.0037651745513458024 -0.0971857407332079 0.15492859429427114 -0.2319050956257396 0.12505971326935528 0.03915017540187927 0.005847041545964768 0.17623587716485956 0.26629505327826014 -0.07261390145609685 -0.19176151901200092 0.25529168887972004 -0.12939080886634532 0.04029062165182771 -0.08516798375260948 0.06983484829078383 0.10978210878405663 -0.2386743796661612 -0.35891044015549795 -0.11533368357131572 0.15944386172772407 0.10550245955083538 0.29274836503952995 0.1426040348458326 0.03562768034137597 0.08075623520585008 0.001956139659376492 -0.06586877004836517 -0.3233768852810599 -0.08052297854837617 -0.2029421446440195 0.17396800268872376 -0.07776147078777366 0.019686879911409497 0.08332988761193834 0.046494128878305986 0.10920031972372303 -0.042763753925518205 -0.010594184309149336 0.0423442164691739 -0.0001657543074211505 0.08891548432387844 0.13279515164096245 -0.14845059563075047 -0.14116862854867318 -0.10014476987121422 0.08554104965724625 0.4285605716130935 -0.07028497953309437 -0.028958394315350584 -0.06814941326987514 0.002303190598076099 0.028117218017528 0.2867410965905577 0.1597249318072789 -0.032846102915220075 -0.14241052821201824 -0.19608816734091555 0.13477764936096145 0.07716058355404075 0.29949341405802243 0.42025907965201387 0.07580860132214955 0.1772302564628332 0.1890846355527082 0.23232936547568994 0.08889187110459407 0.1865809372563595 -0.09858625310414192 0.08823736685851777 -0.32070185501398507 -0.15949588449725763 0.1838487549097617 -0.32635530336798096 -0.10368746313213 -0.09364078066697012 0.07656897844090645 0.16675384975774052 0.003117190008714056 -0.3587629240400916 0.044649497134724075 0.32439121932295173 -0.15614657526466558 -0.06239785639671327 0.07011855023967112 -0.114858852291768 -0.0029070213633106373 -0.10130409021520724
