3 100
U-U 0.15166347067286376 0.4950190394130239 0.30896037130654913 0.5517912907754211 0.45850193553651564 0.6023215093526897 0.35570496035571203 0.12092369004126685 0.24798597945132478 0.16371365505133 0.11237281005555179 0.05514407293076224 0.36195438463687674 0.06419511499721621 0.19370735775902598 0.1389473357368334 0.14476016471294953 0.17169407383908433 0.1713204914255765 0.3357561327391437 0.2730222861857518 0.2186200878627669 0.21175194801126263 0.1999295112088334 0.102319430141965 0.09940379171033835 0.2033151866077444 0.6416892456384379 0.8669724221739966 0.12539533505682646 0.25688483244894916 0.0005352080204870023 -0.004932339326971857 0.217411904280739 0.11133497283526057 0.06960502346389816 0.18807151553008794 0.29648532269245803 0.02454780855794569 0.23152271791522425 0.02305926854791438 0.011218094980964563 0.16987250258671585 0.38779857215330915 0.1621811714982576 0.35329251360139724 0.17742890441103507 0.033764302753321644 0.327116355302269 0.17082082986813532 0.13221070053701117 0.37963061229696543 0.10758780379095119 0.02365002063122903 0.0012797621561836984 0.09792446858543026 0.31195118664202676 0.4232672349430861 -0.05776149864438964 0.1847273304918161 0.37374895006157577 0.4302377369040103 0.0002385333889109725 0.0031660239594852525 0.16821325474881624 0.29452107982054043 -0.026546883963635453 0.25268209249233625 0.15006769396128616 0.15318110539414967 0.20100725788818685 0.3156660130070581 0.040049319843246556 0.0010362379948359157 0.21240426506922472 0.21569209604467215 0.025346697513229002 0.5658907624053363 0.265446217784981 -3.2451590425717125e-05 0.11478569696781643 0.2291289023514597 0.5217502818554903 0.37264976982322096 0.4700537453354672 0.055822854164256516 0.10728463378531722 0.2295597868389767 0.28674676693717627 0.08255016967828535 0.09475831263413126 0.3015581421730222 0.4047699837322552 0.294509353341136 -0.0004804983944311208 0.22442740137271902 -0.06035051605495168 -0.0007014714260056339 0.18236418006820948 0.08380347404596271
